<?xml version="1.0"?>
<MethodSetup Method="BDT::Vol">
  <GeneralInfo>
    <Info name="TMVA Release" value="4.1.2 [262402]"/>
    <Info name="ROOT Release" value="5.32/00 [335872]"/>
    <Info name="Creator" value="pharris"/>
    <Info name="Date" value="Wed Sep 19 12:39:44 2012"/>
    <Info name="Host" value="Linux lxbuild167.cern.ch 2.6.18-308.1.1.el5 #1 SMP Wed Mar 7 19:25:07 CET 2012 x86_64 x86_64 x86_64 GNU/Linux"/>
    <Info name="Dir" value="/data/blue/pharris/JetIDMVA/Train"/>
    <Info name="Training events" value="1138487"/>
    <Info name="TrainingTime" value="5.98984204e+03"/>
    <Info name="AnalysisType" value="Multiclass"/>
  </GeneralInfo>
  <Options>
    <Option name="V" modified="Yes">False</Option>
    <Option name="VerbosityLevel" modified="No">Default</Option>
    <Option name="VarTransform" modified="No">None</Option>
    <Option name="H" modified="Yes">False</Option>
    <Option name="CreateMVAPdfs" modified="No">False</Option>
    <Option name="IgnoreNegWeightsInTraining" modified="No">False</Option>
    <Option name="NTrees" modified="Yes">1000</Option>
    <Option name="RenormByClass" modified="No">False</Option>
    <Option name="BoostType" modified="Yes">Grad</Option>
    <Option name="AdaBoostR2Loss" modified="No">quadratic</Option>
    <Option name="UseBaggedGrad" modified="Yes">True</Option>
    <Option name="GradBaggingFraction" modified="Yes">6.000000e-01</Option>
    <Option name="Shrinkage" modified="Yes">3.000000e-01</Option>
    <Option name="AdaBoostBeta" modified="No">1.000000e+00</Option>
    <Option name="UseRandomisedTrees" modified="No">False</Option>
    <Option name="UseNvars" modified="No">4</Option>
    <Option name="UsePoissonNvars" modified="No">True</Option>
    <Option name="UseNTrainEvents" modified="No">1138487</Option>
    <Option name="UseWeightedTrees" modified="No">True</Option>
    <Option name="UseYesNoLeaf" modified="Yes">True</Option>
    <Option name="NodePurityLimit" modified="No">5.000000e-01</Option>
    <Option name="SeparationType" modified="Yes">giniindex</Option>
    <Option name="nEventsMin" modified="No">505</Option>
    <Option name="nCuts" modified="Yes">100</Option>
    <Option name="UseFisherCuts" modified="No">False</Option>
    <Option name="MinLinCorrForFisher" modified="No">8.000000e-01</Option>
    <Option name="UseExclusiveVars" modified="No">False</Option>
    <Option name="PruneStrength" modified="No">0.000000e+00</Option>
    <Option name="PruneMethod" modified="No">nopruning</Option>
    <Option name="PruneBeforeBoost" modified="No">False</Option>
    <Option name="PruningValFraction" modified="No">5.000000e-01</Option>
    <Option name="NNodesMax" modified="Yes">5</Option>
    <Option name="MaxDepth" modified="No">3</Option>
    <Option name="DoBoostMonitor" modified="No">False</Option>
    <Option name="NegWeightTreatment" modified="No">ignorenegweights</Option>
  </Options>
  <Variables NVar="15">
    <Variable VarIndex="0" Expression="nvtx" Label="nvtx" Title="nvtx" Unit="" Internal="nvtx" Type="F" Min="1.00000000e+00" Max="5.80000000e+01"/>
    <Variable VarIndex="1" Expression="jetPt" Label="jetPt" Title="jetPt" Unit="" Internal="jetPt" Type="F" Min="2.00000095e+01" Max="4.99987305e+02"/>
    <Variable VarIndex="2" Expression="jetEta" Label="jetEta" Title="jetEta" Unit="" Internal="jetEta" Type="F" Min="-5.09287596e+00" Max="5.10318279e+00"/>
    <Variable VarIndex="3" Expression="jetPhi" Label="jetPhi" Title="jetPhi" Unit="" Internal="jetPhi" Type="F" Min="-3.14158940e+00" Max="3.14159226e+00"/>
    <Variable VarIndex="4" Expression="beta" Label="beta" Title="beta" Unit="" Internal="beta" Type="F" Min="0.00000000e+00" Max="1.00000000e+00"/>
    <Variable VarIndex="5" Expression="betaStar" Label="betaStar" Title="betaStar" Unit="" Internal="betaStar" Type="F" Min="0.00000000e+00" Max="1.00000000e+00"/>
    <Variable VarIndex="6" Expression="nParticles" Label="nParticles" Title="nParticles" Unit="" Internal="nParticles" Type="I" Min="1.00000000e+00" Max="1.79000000e+02"/>
    <Variable VarIndex="7" Expression="nCharged" Label="nCharged" Title="nCharged" Unit="" Internal="nCharged" Type="I" Min="0.00000000e+00" Max="1.41000000e+02"/>
    <Variable VarIndex="8" Expression="dRMean" Label="dRMean" Title="dRMean" Unit="" Internal="dRMean" Type="F" Min="0.00000000e+00" Max="3.96137178e-01"/>
    <Variable VarIndex="9" Expression="ptD" Label="ptD" Title="ptD" Unit="" Internal="ptD" Type="F" Min="1.07334323e-01" Max="1.00000000e+00"/>
    <Variable VarIndex="10" Expression="frac01" Label="frac01" Title="frac01" Unit="" Internal="frac01" Type="F" Min="0.00000000e+00" Max="1.00000346e+00"/>
    <Variable VarIndex="11" Expression="frac02" Label="frac02" Title="frac02" Unit="" Internal="frac02" Type="F" Min="0.00000000e+00" Max="9.92755890e-01"/>
    <Variable VarIndex="12" Expression="frac03" Label="frac03" Title="frac03" Unit="" Internal="frac03" Type="F" Min="0.00000000e+00" Max="9.36839819e-01"/>
    <Variable VarIndex="13" Expression="frac04" Label="frac04" Title="frac04" Unit="" Internal="frac04" Type="F" Min="0.00000000e+00" Max="7.85960972e-01"/>
    <Variable VarIndex="14" Expression="frac05" Label="frac05" Title="frac05" Unit="" Internal="frac05" Type="F" Min="0.00000000e+00" Max="5.40213823e-01"/>
  </Variables>
  <Spectators NSpec="0"/>
  <Classes NClass="3">
    <Class Name="Quark" Index="0"/>
    <Class Name="Gluon" Index="1"/>
    <Class Name="PU" Index="2"/>
  </Classes>
  <Transformations NTransformations="0"/>
  <MVAPdfs/>
  <Weights NTrees="3000" AnalysisType="1">
    <BinaryTree type="DecisionTree" boostWeight="1.0000000000000000e+00" itree="0">
      <Node pos="s" depth="0" NCoef="0" IVar="10" Cut="6.1386352777481079e-01" cType="0" res="-7.7229574322700500e-02" rms="4.3647983670234680e-01" purity="2.5610375404357910e-01" nType="0">
        <Node pos="l" depth="1" NCoef="0" IVar="-1" Cut="0.0000000000000000e+00" cType="1" res="9.0956158936023712e-02" rms="4.9874114990234375e-01" purity="5.3545814752578735e-01" nType="-99"/>
        <Node pos="r" depth="1" NCoef="0" IVar="8" Cut="2.1839514374732971e-01" cType="1" res="-2.0072895288467407e-01" rms="3.3914667367935181e-01" purity="1.3260439038276672e-01" nType="0">
          <Node pos="l" depth="2" NCoef="0" IVar="-1" Cut="0.0000000000000000e+00" cType="1" res="-4.1583087295293808e-02" rms="4.2764577269554138e-01" purity="2.4092647433280945e-01" nType="-99"/>
          <Node pos="r" depth="2" NCoef="0" IVar="-1" Cut="0.0000000000000000e+00" cType="1" res="-1.2714633345603943e-01" rms="2.1956029534339905e-01" purity="5.0785928964614868e-02" nType="-99"/>
        </Node>
      </Node>
    </BinaryTree>
    <BinaryTree type="DecisionTree" boostWeight="1.0000000000000000e+00" itree="1">
      <Node pos="s" depth="0" NCoef="0" IVar="10" Cut="6.0396248102188110e-01" cType="0" res="-7.7409178018569946e-02" rms="4.3637940287590027e-01" purity="4.0509870648384094e-01" nType="0">
        <Node pos="l" depth="1" NCoef="0" IVar="-1" Cut="0.0000000000000000e+00" cType="1" res="5.3680785000324249e-02" rms="4.9908575415611267e-01" purity="4.5262396335601807e-01" nType="-99"/>
        <Node pos="r" depth="1" NCoef="0" IVar="8" Cut="2.1516346931457520e-01" cType="1" res="-2.0372347533702850e-01" rms="3.3587372303009033e-01" purity="3.8321340084075928e-01" nType="0">
          <Node pos="l" depth="2" NCoef="0" IVar="-1" Cut="0.0000000000000000e+00" cType="1" res="1.2859414517879486e-01" rms="4.2794275283813477e-01" purity="6.1909806728363037e-01" nType="-99"/>
          <Node pos="r" depth="2" NCoef="0" IVar="-1" Cut="0.0000000000000000e+00" cType="1" res="-5.0421897321939468e-02" rms="2.2374783456325531e-01" purity="2.2128467261791229e-01" nType="-99"/>
        </Node>
      </Node>
    </BinaryTree>
    <BinaryTree type="DecisionTree" boostWeight="1.0000000000000000e+00" itree="2">
      <Node pos="s" depth="0" NCoef="0" IVar="10" Cut="6.1386352777481079e-01" cType="1" res="-7.7389709651470184e-02" rms="4.3639031052589417e-01" purity="3.3904531598091125e-01" nType="0">
        <Node pos="l" depth="1" NCoef="0" IVar="-1" Cut="0.0000000000000000e+00" cType="1" res="6.6696718335151672e-02" rms="3.3918440341949463e-01" purity="4.8154824972152710e-01" nType="-99"/>
        <Node pos="r" depth="1" NCoef="0" IVar="9" Cut="3.7278214097023010e-01" cType="0" res="2.0259691774845123e-01" rms="4.9870735406875610e-01" purity="1.5464682132005692e-02" nType="0">
          <Node pos="l" depth="2" NCoef="0" IVar="-1" Cut="0.0000000000000000e+00" cType="1" res="-1.3919143378734589e-01" rms="4.6011945605278015e-01" purity="2.4019043892621994e-02" nType="-99"/>
          <Node pos="r" depth="2" NCoef="0" IVar="-1" Cut="0.0000000000000000e+00" cType="1" res="-1.4750574529170990e-01" rms="4.7717174887657166e-01" purity="5.5428016930818558e-03" nType="-99"/>
        </Node>
      </Node>
    </BinaryTree>
    <BinaryTree type="DecisionTree" boostWeight="1.0000000000000000e+00" itree="3">
      <Node pos="s" depth="0" NCoef="0" IVar="9" Cut="3.6012807488441467e-01" cType="0" res="-6.6084578633308411e-02" rms="4.2548128962516785e-01" purity="2.5583636760711670e-01" nType="0">
        <Node pos="l" depth="1" NCoef="0" IVar="-1" Cut="0.0000000000000000e+00" cType="1" res="9.3150898814201355e-02" rms="4.8825913667678833e-01" purity="5.5044966936111450e-01" nType="-99"/>
        <Node pos="r" depth="1" NCoef="0" IVar="1" Cut="3.9009334564208984e+01" cType="0" res="-1.7177285254001617e-01" rms="3.4461250901222229e-01" purity="1.4255529642105103e-01" nType="0">
          <Node pos="l" depth="2" NCoef="0" IVar="-1" Cut="0.0000000000000000e+00" cType="1" res="-3.9486717432737350e-02" rms="4.2221662402153015e-01" purity="2.3783703148365021e-01" nType="-99"/>
          <Node pos="r" depth="2" NCoef="0" IVar="-1" Cut="0.0000000000000000e+00" cType="1" res="-1.2479422241449356e-01" rms="1.9560186564922333e-01" purity="3.9921060204505920e-02" nType="-99"/>
        </Node>
      </Node>
    </BinaryTree>
    <BinaryTree type="DecisionTree" boostWeight="1.0000000000000000e+00" itree="4">
      <Node pos="s" depth="0" NCoef="0" IVar="9" Cut="3.6364427208900452e-01" cType="1" res="-6.5729118883609772e-02" rms="4.2569255828857422e-01" purity="4.0482178330421448e-01" nType="0">
        <Node pos="l" depth="1" NCoef="0" IVar="-1" Cut="0.0000000000000000e+00" cType="1" res="4.8179764300584793e-02" rms="3.4742912650108337e-01" purity="4.4924810528755188e-01" nType="-99"/>
        <Node pos="r" depth="1" NCoef="0" IVar="1" Cut="3.9009456634521484e+01" cType="0" res="2.1425297856330872e-01" rms="4.8769906163215637e-01" purity="2.8444027900695801e-01" nType="0">
          <Node pos="l" depth="2" NCoef="0" IVar="-1" Cut="0.0000000000000000e+00" cType="1" res="-1.4936096034944057e-02" rms="4.6883788704872131e-01" purity="3.1655189394950867e-01" nType="-99"/>
          <Node pos="r" depth="2" NCoef="0" IVar="-1" Cut="0.0000000000000000e+00" cType="1" res="-7.5993783771991730e-02" rms="3.8070550560951233e-01" purity="1.7379014194011688e-01" nType="-99"/>
        </Node>
      </Node>
    </BinaryTree>
    <BinaryTree type="DecisionTree" boostWeight="1.0000000000000000e+00" itree="5">
      <Node pos="s" depth="0" NCoef="0" IVar="9" Cut="3.6364427208900452e-01" cType="1" res="-6.5820164978504181e-02" rms="4.2561647295951843e-01" purity="3.3897352218627930e-01" nType="0">
        <Node pos="l" depth="1" NCoef="0" IVar="-1" Cut="0.0000000000000000e+00" cType="1" res="2.7048919349908829e-02" rms="3.4739822149276733e-01" purity="4.0519973635673523e-01" nType="-99"/>
        <Node pos="r" depth="1" NCoef="0" IVar="1" Cut="3.9009372711181641e+01" cType="1" res="2.1489922702312469e-01" rms="4.8752984404563904e-01" purity="1.5897843241691589e-01" nType="0">
          <Node pos="l" depth="2" NCoef="0" IVar="-1" Cut="0.0000000000000000e+00" cType="1" res="1.3540868461132050e-01" rms="3.7988755106925964e-01" purity="6.4900195598602295e-01" nType="-99"/>
          <Node pos="r" depth="2" NCoef="0" IVar="-1" Cut="0.0000000000000000e+00" cType="1" res="-1.3462725281715393e-01" rms="4.6846508979797363e-01" purity="1.7143098637461662e-02" nType="-99"/>
        </Node>
      </Node>
    </BinaryTree>
    <BinaryTree type="DecisionTree" boostWeight="1.0000000000000000e+00" itree="6">
      <Node pos="s" depth="0" NCoef="0" IVar="8" Cut="1.6865245997905731e-01" cType="1" res="-5.6421782821416855e-02" rms="4.1394561529159546e-01" purity="2.5643536448478699e-01" nType="0">
        <Node pos="l" depth="1" NCoef="0" IVar="-1" Cut="0.0000000000000000e+00" cType="1" res="4.8805501312017441e-02" rms="4.8399531841278076e-01" purity="4.6377271413803101e-01" nType="-99"/>
        <Node pos="r" depth="1" NCoef="0" IVar="1" Cut="3.4253913879394531e+01" cType="0" res="-1.8488150835037231e-01" rms="2.9156139492988586e-01" purity="9.6923954784870148e-02" nType="0">
          <Node pos="l" depth="2" NCoef="0" IVar="-1" Cut="0.0000000000000000e+00" cType="1" res="-4.7001253813505173e-02" rms="3.9180997014045715e-01" purity="1.9444444775581360e-01" nType="-99"/>
          <Node pos="r" depth="2" NCoef="0" IVar="-1" Cut="0.0000000000000000e+00" cType="1" res="-1.1794590950012207e-01" rms="1.9625306129455566e-01" purity="4.0750201791524887e-02" nType="-99"/>
        </Node>
      </Node>
    </BinaryTree>
    <BinaryTree type="DecisionTree" boostWeight="1.0000000000000000e+00" itree="7">
      <Node pos="s" depth="0" NCoef="0" IVar="9" Cut="3.8662809133529663e-01" cType="1" res="-5.7141210883855820e-02" rms="4.1357302665710449e-01" purity="4.0524664521217346e-01" nType="0">
        <Node pos="l" depth="1" NCoef="0" IVar="-1" Cut="0.0000000000000000e+00" cType="1" res="3.9439719170331955e-02" rms="3.5650920867919922e-01" purity="4.4549995660781860e-01" nType="-99"/>
        <Node pos="r" depth="1" NCoef="0" IVar="1" Cut="3.9009372711181641e+01" cType="0" res="2.1677228808403015e-01" rms="4.7885170578956604e-01" purity="2.6362141966819763e-01" nType="0">
          <Node pos="l" depth="2" NCoef="0" IVar="-1" Cut="0.0000000000000000e+00" cType="1" res="-2.6927718892693520e-02" rms="4.5734784007072449e-01" purity="2.8714892268180847e-01" nType="-99"/>
          <Node pos="r" depth="2" NCoef="0" IVar="-1" Cut="0.0000000000000000e+00" cType="1" res="-6.2372423708438873e-02" rms="3.9414358139038086e-01" purity="1.7326511442661285e-01" nType="-99"/>
        </Node>
      </Node>
    </BinaryTree>
    <BinaryTree type="DecisionTree" boostWeight="1.0000000000000000e+00" itree="8">
      <Node pos="s" depth="0" NCoef="0" IVar="9" Cut="3.8132080435752869e-01" cType="1" res="-5.7046696543693542e-02" rms="4.1356045007705688e-01" purity="3.3835026621818542e-01" nType="0">
        <Node pos="l" depth="1" NCoef="0" IVar="-1" Cut="0.0000000000000000e+00" cType="1" res="2.0126108080148697e-02" rms="3.5378554463386536e-01" purity="3.9600938558578491e-01" nType="-99"/>
        <Node pos="r" depth="1" NCoef="0" IVar="1" Cut="3.4257625579833984e+01" cType="1" res="2.0973508059978485e-01" rms="4.7996777296066284e-01" purity="1.4729112386703491e-01" nType="0">
          <Node pos="l" depth="2" NCoef="0" IVar="-1" Cut="0.0000000000000000e+00" cType="1" res="1.3628816604614258e-01" rms="3.6234128475189209e-01" purity="6.9046306610107422e-01" nType="-99"/>
          <Node pos="r" depth="2" NCoef="0" IVar="-1" Cut="0.0000000000000000e+00" cType="1" res="-1.2365791201591492e-01" rms="4.6237438917160034e-01" purity="2.5424581021070480e-02" nType="-99"/>
        </Node>
      </Node>
    </BinaryTree>
    <BinaryTree type="DecisionTree" boostWeight="1.0000000000000000e+00" itree="9">
      <Node pos="s" depth="0" NCoef="0" IVar="9" Cut="3.3712944388389587e-01" cType="0" res="-4.9675259739160538e-02" rms="4.0470722317695618e-01" purity="2.5571197271347046e-01" nType="0">
        <Node pos="l" depth="1" NCoef="0" IVar="-1" Cut="0.0000000000000000e+00" cType="1" res="6.0481693595647812e-02" rms="4.7483044862747192e-01" purity="5.0835680961608887e-01" nType="-99"/>
        <Node pos="r" depth="1" NCoef="0" IVar="8" Cut="2.2871369123458862e-01" cType="1" res="-1.4538969099521637e-01" rms="3.2441595196723938e-01" purity="1.2721793353557587e-01" nType="0">
          <Node pos="l" depth="2" NCoef="0" IVar="-1" Cut="0.0000000000000000e+00" cType="1" res="-4.0218386799097061e-02" rms="4.0569302439689636e-01" purity="2.1347832679748535e-01" nType="-99"/>
          <Node pos="r" depth="2" NCoef="0" IVar="-1" Cut="0.0000000000000000e+00" cType="1" res="-1.1269310861825943e-01" rms="1.8853695690631866e-01" purity="3.7712231278419495e-02" nType="-99"/>
        </Node>
      </Node>
    </BinaryTree>
    <BinaryTree type="DecisionTree" boostWeight="1.0000000000000000e+00" itree="10">
      <Node pos="s" depth="0" NCoef="0" IVar="9" Cut="3.4596771001815796e-01" cType="1" res="-4.9169700592756271e-02" rms="4.0495374798774719e-01" purity="4.0496054291725159e-01" nType="0">
        <Node pos="l" depth="1" NCoef="0" IVar="-1" Cut="0.0000000000000000e+00" cType="1" res="3.6209896206855774e-02" rms="3.3042779564857483e-01" purity="4.5155012607574463e-01" nType="-99"/>
        <Node pos="r" depth="1" NCoef="0" IVar="1" Cut="3.9009372711181641e+01" cType="0" res="1.5033896267414093e-01" rms="4.7543698549270630e-01" purity="3.0292290449142456e-01" nType="0">
          <Node pos="l" depth="2" NCoef="0" IVar="-1" Cut="0.0000000000000000e+00" cType="1" res="-3.0342568643391132e-03" rms="4.7288864850997925e-01" purity="3.4304913878440857e-01" nType="-99"/>
          <Node pos="r" depth="2" NCoef="0" IVar="-1" Cut="0.0000000000000000e+00" cType="1" res="-6.1871238052845001e-02" rms="3.6550801992416382e-01" purity="1.7622393369674683e-01" nType="-99"/>
        </Node>
      </Node>
    </BinaryTree>
    <BinaryTree type="DecisionTree" boostWeight="1.0000000000000000e+00" itree="11">
      <Node pos="s" depth="0" NCoef="0" IVar="9" Cut="3.4269401431083679e-01" cType="1" res="-5.0127394497394562e-02" rms="4.0455076098442078e-01" purity="3.3884617686271667e-01" nType="0">
        <Node pos="l" depth="1" NCoef="0" IVar="-1" Cut="0.0000000000000000e+00" cType="1" res="2.4975102394819260e-02" rms="3.2833245396614075e-01" purity="4.1658726334571838e-01" nType="-99"/>
        <Node pos="r" depth="1" NCoef="0" IVar="1" Cut="3.9009735107421875e+01" cType="1" res="1.4403721690177917e-01" rms="4.7542732954025269e-01" purity="1.7472273111343384e-01" nType="0">
          <Node pos="l" depth="2" NCoef="0" IVar="-1" Cut="0.0000000000000000e+00" cType="1" res="1.0979852080345154e-01" rms="3.6111044883728027e-01" purity="6.6213840246200562e-01" nType="-99"/>
          <Node pos="r" depth="2" NCoef="0" IVar="-1" Cut="0.0000000000000000e+00" cType="1" res="-1.2446161359548569e-01" rms="4.7452175617218018e-01" purity="1.7790211364626884e-02" nType="-99"/>
        </Node>
      </Node>
    </BinaryTree>
    <BinaryTree type="DecisionTree" boostWeight="1.0000000000000000e+00" itree="12">
      <Node pos="s" depth="0" NCoef="0" IVar="10" Cut="6.9307172298431396e-01" cType="0" res="-4.3043933808803558e-02" rms="3.9713150262832642e-01" purity="2.5610619783401489e-01" nType="0">
        <Node pos="l" depth="1" NCoef="0" IVar="-1" Cut="0.0000000000000000e+00" cType="1" res="7.2316780686378479e-02" rms="4.7541159391403198e-01" purity="5.8686786890029907e-01" nType="-99"/>
        <Node pos="r" depth="1" NCoef="0" IVar="8" Cut="2.1331577003002167e-01" cType="1" res="-1.0879629105329514e-01" rms="3.4410324692726135e-01" purity="1.5559539198875427e-01" nType="0">
          <Node pos="l" depth="2" NCoef="0" IVar="-1" Cut="0.0000000000000000e+00" cType="1" res="-1.4366284944117069e-02" rms="4.3209296464920044e-01" purity="2.7300253510475159e-01" nType="-99"/>
          <Node pos="r" depth="2" NCoef="0" IVar="-1" Cut="0.0000000000000000e+00" cType="1" res="-9.9694810807704926e-02" rms="2.2304804623126984e-01" purity="5.4693907499313354e-02" nType="-99"/>
        </Node>
      </Node>
    </BinaryTree>
    <BinaryTree type="DecisionTree" boostWeight="1.0000000000000000e+00" itree="13">
      <Node pos="s" depth="0" NCoef="0" IVar="9" Cut="3.9015910029411316e-01" cType="1" res="-4.3597418814897537e-02" rms="3.9663755893707275e-01" purity="4.0577137470245361e-01" nType="0">
        <Node pos="l" depth="1" NCoef="0" IVar="-1" Cut="0.0000000000000000e+00" cType="1" res="3.0625876039266586e-02" rms="3.5039451718330383e-01" purity="4.4614493846893311e-01" nType="-99"/>
        <Node pos="r" depth="1" NCoef="0" IVar="1" Cut="3.9009887695312500e+01" cType="0" res="1.8513560295104980e-01" rms="4.6632602810859680e-01" purity="2.5767087936401367e-01" nType="0">
          <Node pos="l" depth="2" NCoef="0" IVar="-1" Cut="0.0000000000000000e+00" cType="1" res="-2.9647931456565857e-02" rms="4.5350179076194763e-01" purity="2.7986463904380798e-01" nType="-99"/>
          <Node pos="r" depth="2" NCoef="0" IVar="-1" Cut="0.0000000000000000e+00" cType="1" res="-4.4691413640975952e-02" rms="3.9129978418350220e-01" purity="1.7139708995819092e-01" nType="-99"/>
        </Node>
      </Node>
    </BinaryTree>
    <BinaryTree type="DecisionTree" boostWeight="1.0000000000000000e+00" itree="14">
      <Node pos="s" depth="0" NCoef="0" IVar="10" Cut="7.0297032594680786e-01" cType="1" res="-4.3160233646631241e-02" rms="3.9701130986213684e-01" purity="3.3894893527030945e-01" nType="0">
        <Node pos="l" depth="1" NCoef="0" IVar="-1" Cut="0.0000000000000000e+00" cType="1" res="2.9441885650157928e-02" rms="3.4660640358924866e-01" purity="4.3340978026390076e-01" nType="-99"/>
        <Node pos="r" depth="1" NCoef="0" IVar="9" Cut="4.1059032082557678e-01" cType="0" res="1.7970886826515198e-01" rms="4.7432309389114380e-01" purity="8.2457782700657845e-03" nType="0">
          <Node pos="l" depth="2" NCoef="0" IVar="-1" Cut="0.0000000000000000e+00" cType="1" res="-1.1754157394170761e-01" rms="4.2483663558959961e-01" purity="1.3957756571471691e-02" nType="-99"/>
          <Node pos="r" depth="2" NCoef="0" IVar="-1" Cut="0.0000000000000000e+00" cType="1" res="-1.3424211740493774e-01" rms="4.8697531223297119e-01" purity="2.9476038180291653e-03" nType="-99"/>
        </Node>
      </Node>
    </BinaryTree>
    <BinaryTree type="DecisionTree" boostWeight="1.0000000000000000e+00" itree="15">
      <Node pos="s" depth="0" NCoef="0" IVar="9" Cut="3.9539054036140442e-01" cType="0" res="-3.8127534091472626e-02" rms="3.9032915234565735e-01" purity="2.5587677955627441e-01" nType="0">
        <Node pos="l" depth="1" NCoef="0" IVar="-1" Cut="0.0000000000000000e+00" cType="1" res="7.2642266750335693e-02" rms="4.5966613292694092e-01" purity="6.0727220773696899e-01" nType="-99"/>
        <Node pos="r" depth="1" NCoef="0" IVar="1" Cut="3.4257015228271484e+01" cType="0" res="-9.2892050743103027e-02" rms="3.5003429651260376e-01" purity="1.6512738168239594e-01" nType="0">
          <Node pos="l" depth="2" NCoef="0" IVar="-1" Cut="0.0000000000000000e+00" cType="1" res="-1.8388483673334122e-02" rms="4.2468279600143433e-01" purity="2.5993806123733521e-01" nType="-99"/>
          <Node pos="r" depth="2" NCoef="0" IVar="-1" Cut="0.0000000000000000e+00" cType="1" res="-1.0335346311330795e-01" rms="1.8584924936294556e-01" purity="3.6881253123283386e-02" nType="-99"/>
        </Node>
      </Node>
    </BinaryTree>
    <BinaryTree type="DecisionTree" boostWeight="1.0000000000000000e+00" itree="16">
      <Node pos="s" depth="0" NCoef="0" IVar="9" Cut="4.0453779697418213e-01" cType="1" res="-3.8230892270803452e-02" rms="3.9014431834220886e-01" purity="4.0424770116806030e-01" nType="0">
        <Node pos="l" depth="1" NCoef="0" IVar="-1" Cut="0.0000000000000000e+00" cType="1" res="2.5759387761354446e-02" rms="3.5311213135719299e-01" purity="4.4129824638366699e-01" nType="-99"/>
        <Node pos="r" depth="1" NCoef="0" IVar="1" Cut="3.9009971618652344e+01" cType="0" res="1.8371815979480743e-01" rms="4.5734474062919617e-01" purity="2.4577169120311737e-01" nType="0">
          <Node pos="l" depth="2" NCoef="0" IVar="-1" Cut="0.0000000000000000e+00" cType="1" res="-3.2662220299243927e-02" rms="4.4447302818298340e-01" purity="2.6423868536949158e-01" nType="-99"/>
          <Node pos="r" depth="2" NCoef="0" IVar="-1" Cut="0.0000000000000000e+00" cType="1" res="-4.1828665882349014e-02" rms="3.9525112509727478e-01" purity="1.7035581171512604e-01" nType="-99"/>
        </Node>
      </Node>
    </BinaryTree>
    <BinaryTree type="DecisionTree" boostWeight="1.0000000000000000e+00" itree="17">
      <Node pos="s" depth="0" NCoef="0" IVar="9" Cut="3.9241358637809753e-01" cType="1" res="-3.8371287286281586e-02" rms="3.9027690887451172e-01" purity="3.3894553780555725e-01" nType="0">
        <Node pos="l" depth="1" NCoef="0" IVar="-1" Cut="0.0000000000000000e+00" cType="1" res="1.3836705125868320e-02" rms="3.4881955385208130e-01" purity="3.9163851737976074e-01" nType="-99"/>
        <Node pos="r" depth="1" NCoef="0" IVar="1" Cut="3.4257644653320312e+01" cType="1" res="1.6992010176181793e-01" rms="4.6044334769248962e-01" purity="1.4174826443195343e-01" nType="0">
          <Node pos="l" depth="2" NCoef="0" IVar="-1" Cut="0.0000000000000000e+00" cType="1" res="9.2926241457462311e-02" rms="3.6250811815261841e-01" purity="6.9097030162811279e-01" nType="-99"/>
          <Node pos="r" depth="2" NCoef="0" IVar="-1" Cut="0.0000000000000000e+00" cType="1" res="-1.1137577146291733e-01" rms="4.5335805416107178e-01" purity="2.4870842695236206e-02" nType="-99"/>
        </Node>
      </Node>
    </BinaryTree>
    <BinaryTree type="DecisionTree" boostWeight="1.0000000000000000e+00" itree="18">
      <Node pos="s" depth="0" NCoef="0" IVar="9" Cut="3.2320508360862732e-01" cType="0" res="-3.3079948276281357e-02" rms="3.8516420125961304e-01" purity="2.5676372647285461e-01" nType="0">
        <Node pos="l" depth="1" NCoef="0" IVar="-1" Cut="0.0000000000000000e+00" cType="1" res="3.8794577121734619e-02" rms="4.5749706029891968e-01" purity="4.8445746302604675e-01" nType="-99"/>
        <Node pos="r" depth="1" NCoef="0" IVar="4" Cut="2.9702970385551453e-01" cType="0" res="-1.0698327422142029e-01" rms="3.1097242236137390e-01" purity="1.1761719733476639e-01" nType="0">
          <Node pos="l" depth="2" NCoef="0" IVar="-1" Cut="0.0000000000000000e+00" cType="1" res="-3.6496262997388840e-02" rms="3.8395103812217712e-01" purity="1.8599039316177368e-01" nType="-99"/>
          <Node pos="r" depth="2" NCoef="0" IVar="-1" Cut="0.0000000000000000e+00" cType="1" res="-1.0791319608688354e-01" rms="1.4391691982746124e-01" purity="2.1959785372018814e-02" nType="-99"/>
        </Node>
      </Node>
    </BinaryTree>
    <BinaryTree type="DecisionTree" boostWeight="1.0000000000000000e+00" itree="19">
      <Node pos="s" depth="0" NCoef="0" IVar="9" Cut="3.2320508360862732e-01" cType="1" res="-3.4309793263673782e-02" rms="3.8452833890914917e-01" purity="4.0571179986000061e-01" nType="0">
        <Node pos="l" depth="1" NCoef="0" IVar="-1" Cut="0.0000000000000000e+00" cType="1" res="2.3281481117010117e-02" rms="3.1059020757675171e-01" purity="4.5246678590774536e-01" nType="-99"/>
        <Node pos="r" depth="1" NCoef="0" IVar="1" Cut="3.9009372711181641e+01" cType="0" res="8.5717752575874329e-02" rms="4.5739609003067017e-01" purity="3.2882660627365112e-01" nType="0">
          <Node pos="l" depth="2" NCoef="0" IVar="-1" Cut="0.0000000000000000e+00" cType="1" res="1.4580916613340378e-02" rms="4.7174978256225586e-01" purity="3.8087937235832214e-01" nType="-99"/>
          <Node pos="r" depth="2" NCoef="0" IVar="-1" Cut="0.0000000000000000e+00" cType="1" res="-5.8003611862659454e-02" rms="3.4333455562591553e-01" purity="1.8116898834705353e-01" nType="-99"/>
        </Node>
      </Node>
    </BinaryTree>
    <BinaryTree type="DecisionTree" boostWeight="1.0000000000000000e+00" itree="20">
      <Node pos="s" depth="0" NCoef="0" IVar="9" Cut="3.2529088854789734e-01" cType="1" res="-3.3478133380413055e-02" rms="3.8488480448722839e-01" purity="3.3849689364433289e-01" nType="0">
        <Node pos="l" depth="1" NCoef="0" IVar="-1" Cut="0.0000000000000000e+00" cType="1" res="2.1372657269239426e-02" rms="3.1244859099388123e-01" purity="4.2789354920387268e-01" nType="-99"/>
        <Node pos="r" depth="1" NCoef="0" IVar="1" Cut="3.9009605407714844e+01" cType="1" res="8.9114062488079071e-02" rms="4.5779046416282654e-01" purity="1.8742966651916504e-01" nType="0">
          <Node pos="l" depth="2" NCoef="0" IVar="-1" Cut="0.0000000000000000e+00" cType="1" res="9.4787366688251495e-02" rms="3.4539756178855896e-01" purity="6.7162024974822998e-01" nType="-99"/>
          <Node pos="r" depth="2" NCoef="0" IVar="-1" Cut="0.0000000000000000e+00" cType="1" res="-1.1704444885253906e-01" rms="4.7100752592086792e-01" purity="1.8243310973048210e-02" nType="-99"/>
        </Node>
      </Node>
    </BinaryTree>
    <BinaryTree type="DecisionTree" boostWeight="1.0000000000000000e+00" itree="21">
      <Node pos="s" depth="0" NCoef="0" IVar="10" Cut="7.6237887144088745e-01" cType="0" res="-2.9756186529994011e-02" rms="3.8086739182472229e-01" purity="2.5586107373237610e-01" nType="0">
        <Node pos="l" depth="1" NCoef="0" IVar="-1" Cut="0.0000000000000000e+00" cType="1" res="6.7344017326831818e-02" rms="4.5583534240722656e-01" purity="6.4664465188980103e-01" nType="-99"/>
        <Node pos="r" depth="1" NCoef="0" IVar="1" Cut="3.4257003784179688e+01" cType="0" res="-6.7123480141162872e-02" rms="3.5260391235351562e-01" purity="1.8054445087909698e-01" nType="0">
          <Node pos="l" depth="2" NCoef="0" IVar="-1" Cut="0.0000000000000000e+00" cType="1" res="-6.6651180386543274e-03" rms="4.2689564824104309e-01" purity="2.8581210970878601e-01" nType="-99"/>
          <Node pos="r" depth="2" NCoef="0" IVar="-1" Cut="0.0000000000000000e+00" cType="1" res="-9.1056920588016510e-02" rms="2.0900319516658783e-01" purity="4.8773679882287979e-02" nType="-99"/>
        </Node>
      </Node>
    </BinaryTree>
    <BinaryTree type="DecisionTree" boostWeight="1.0000000000000000e+00" itree="22">
      <Node pos="s" depth="0" NCoef="0" IVar="10" Cut="7.5247782468795776e-01" cType="1" res="-2.9470534995198250e-02" rms="3.8072648644447327e-01" purity="4.0454068779945374e-01" nType="0">
        <Node pos="l" depth="1" NCoef="0" IVar="-1" Cut="0.0000000000000000e+00" cType="1" res="1.3455285690724850e-02" rms="3.5027611255645752e-01" purity="4.1458418965339661e-01" nType="-99"/>
        <Node pos="r" depth="1" NCoef="0" IVar="9" Cut="4.3105947971343994e-01" cType="1" res="1.5809400379657745e-01" rms="4.5774567127227783e-01" purity="3.5622894763946533e-01" nType="0">
          <Node pos="l" depth="2" NCoef="0" IVar="-1" Cut="0.0000000000000000e+00" cType="1" res="5.4616678506135941e-02" rms="4.8510390520095825e-01" purity="5.0016850233078003e-01" nType="-99"/>
          <Node pos="r" depth="2" NCoef="0" IVar="-1" Cut="0.0000000000000000e+00" cType="1" res="-5.7914827018976212e-02" rms="4.0143230557441711e-01" purity="1.9388881325721741e-01" nType="-99"/>
        </Node>
      </Node>
    </BinaryTree>
    <BinaryTree type="DecisionTree" boostWeight="1.0000000000000000e+00" itree="23">
      <Node pos="s" depth="0" NCoef="0" IVar="10" Cut="7.6725751161575317e-01" cType="1" res="-2.9469246044754982e-02" rms="3.8081800937652588e-01" purity="3.3836936950683594e-01" nType="0">
        <Node pos="l" depth="1" NCoef="0" IVar="-1" Cut="0.0000000000000000e+00" cType="1" res="1.4316924847662449e-02" rms="3.5347053408622742e-01" purity="4.0036275982856750e-01" nType="-99"/>
        <Node pos="r" depth="1" NCoef="0" IVar="9" Cut="4.3308705091476440e-01" cType="0" res="1.7032642662525177e-01" rms="4.5366641879081726e-01" purity="4.5749070122838020e-03" nType="0">
          <Node pos="l" depth="2" NCoef="0" IVar="-1" Cut="0.0000000000000000e+00" cType="1" res="-1.1093849688768387e-01" rms="3.9508578181266785e-01" purity="7.4389772489666939e-03" nType="-99"/>
          <Node pos="r" depth="2" NCoef="0" IVar="-1" Cut="0.0000000000000000e+00" cType="1" res="-1.2492370605468750e-01" rms="4.8481184244155884e-01" purity="1.9103918457403779e-03" nType="-99"/>
        </Node>
      </Node>
    </BinaryTree>
    <BinaryTree type="DecisionTree" boostWeight="1.0000000000000000e+00" itree="24">
      <Node pos="s" depth="0" NCoef="0" IVar="8" Cut="1.9181904196739197e-01" cType="1" res="-2.6641091331839561e-02" rms="3.7717658281326294e-01" purity="2.5551000237464905e-01" nType="0">
        <Node pos="l" depth="1" NCoef="0" IVar="-1" Cut="0.0000000000000000e+00" cType="1" res="2.1786356344819069e-02" rms="4.5311054587364197e-01" purity="4.2696955800056458e-01" nType="-99"/>
        <Node pos="r" depth="1" NCoef="0" IVar="5" Cut="5.2475249767303467e-01" cType="1" res="-1.0530076920986176e-01" rms="2.5212195515632629e-01" purity="7.4232615530490875e-02" nType="0">
          <Node pos="l" depth="2" NCoef="0" IVar="-1" Cut="0.0000000000000000e+00" cType="1" res="-4.2097669094800949e-02" rms="3.3397638797760010e-01" purity="1.3549217581748962e-01" nType="-99"/>
          <Node pos="r" depth="2" NCoef="0" IVar="-1" Cut="0.0000000000000000e+00" cType="1" res="-1.0415983945131302e-01" rms="1.3970671594142914e-01" purity="2.1041747182607651e-02" nType="-99"/>
        </Node>
      </Node>
    </BinaryTree>
    <BinaryTree type="DecisionTree" boostWeight="1.0000000000000000e+00" itree="25">
      <Node pos="s" depth="0" NCoef="0" IVar="8" Cut="1.9064797461032867e-01" cType="1" res="-2.6461813598871231e-02" rms="3.7700137495994568e-01" purity="4.0528103709220886e-01" nType="0">
        <Node pos="l" depth="1" NCoef="0" IVar="-1" Cut="0.0000000000000000e+00" cType="1" res="6.9404728710651398e-02" rms="4.5338764786720276e-01" purity="5.2657991647720337e-01" nType="-99"/>
        <Node pos="r" depth="1" NCoef="0" IVar="5" Cut="5.1485151052474976e-01" cType="1" res="-1.0503104329109192e-01" rms="2.5297960638999939e-01" purity="2.7901467680931091e-01" nType="0">
          <Node pos="l" depth="2" NCoef="0" IVar="-1" Cut="0.0000000000000000e+00" cType="1" res="5.7679306715726852e-02" rms="3.3621472120285034e-01" purity="5.1598513126373291e-01" nType="-99"/>
          <Node pos="r" depth="2" NCoef="0" IVar="-1" Cut="0.0000000000000000e+00" cType="1" res="-1.3736732304096222e-01" rms="1.3872663676738739e-01" purity="7.4916332960128784e-02" nType="-99"/>
        </Node>
      </Node>
    </BinaryTree>
    <BinaryTree type="DecisionTree" boostWeight="1.0000000000000000e+00" itree="26">
      <Node pos="s" depth="0" NCoef="0" IVar="9" Cut="4.2551219463348389e-01" cType="1" res="-2.6369264349341393e-02" rms="3.7683713436126709e-01" purity="3.3925339579582214e-01" nType="0">
        <Node pos="l" depth="1" NCoef="0" IVar="-1" Cut="0.0000000000000000e+00" cType="1" res="7.8179361298680305e-03" rms="3.5365670919418335e-01" purity="3.7983182072639465e-01" nType="-99"/>
        <Node pos="r" depth="1" NCoef="0" IVar="1" Cut="4.3762313842773438e+01" cType="1" res="1.5270531177520752e-01" rms="4.4067251682281494e-01" purity="1.2293356657028198e-01" nType="0">
          <Node pos="l" depth="2" NCoef="0" IVar="-1" Cut="0.0000000000000000e+00" cType="1" res="4.5248799026012421e-02" rms="4.1797921061515808e-01" purity="5.5437618494033813e-01" nType="-99"/>
          <Node pos="r" depth="2" NCoef="0" IVar="-1" Cut="0.0000000000000000e+00" cType="1" res="-1.0883892327547073e-01" rms="4.2840054631233215e-01" purity="1.0896859690546989e-02" nType="-99"/>
        </Node>
      </Node>
    </BinaryTree>
    <BinaryTree type="DecisionTree" boostWeight="1.0000000000000000e+00" itree="27">
      <Node pos="s" depth="0" NCoef="0" IVar="9" Cut="3.0776599049568176e-01" cType="0" res="-2.0339427515864372e-02" rms="3.7653866410255432e-01" purity="2.5597566366195679e-01" nType="0">
        <Node pos="l" depth="1" NCoef="0" IVar="-1" Cut="0.0000000000000000e+00" cType="1" res="3.1035732477903366e-02" rms="4.4559133052825928e-01" purity="4.5335769653320312e-01" nType="-99"/>
        <Node pos="r" depth="1" NCoef="0" IVar="5" Cut="5.1485151052474976e-01" cType="1" res="-8.6649917066097260e-02" rms="2.9763939976692200e-01" purity="1.0651163011789322e-01" nType="0">
          <Node pos="l" depth="2" NCoef="0" IVar="-1" Cut="0.0000000000000000e+00" cType="1" res="-3.3601574599742889e-02" rms="3.6792004108428955e-01" purity="1.6694620251655579e-01" nType="-99"/>
          <Node pos="r" depth="2" NCoef="0" IVar="-1" Cut="0.0000000000000000e+00" cType="1" res="-1.0346931964159012e-01" rms="1.2921003997325897e-01" purity="1.7640216276049614e-02" nType="-99"/>
        </Node>
      </Node>
    </BinaryTree>
    <BinaryTree type="DecisionTree" boostWeight="1.0000000000000000e+00" itree="28">
      <Node pos="s" depth="0" NCoef="0" IVar="9" Cut="3.0776599049568176e-01" cType="1" res="-2.0469736307859421e-02" rms="3.7643197178840637e-01" purity="4.0515697002410889e-01" nType="0">
        <Node pos="l" depth="1" NCoef="0" IVar="-1" Cut="0.0000000000000000e+00" cType="1" res="1.8325945362448692e-02" rms="2.9746699333190918e-01" purity="4.5050725340843201e-01" nType="-99"/>
        <Node pos="r" depth="1" NCoef="0" IVar="1" Cut="2.9505043029785156e+01" cType="0" res="6.7413412034511566e-02" rms="4.4582659006118774e-01" purity="3.4498617053031921e-01" nType="0">
          <Node pos="l" depth="2" NCoef="0" IVar="-1" Cut="0.0000000000000000e+00" cType="1" res="1.5989484265446663e-02" rms="4.6746766567230225e-01" purity="4.0094983577728271e-01" nType="-99"/>
          <Node pos="r" depth="2" NCoef="0" IVar="-1" Cut="0.0000000000000000e+00" cType="1" res="-8.7205536663532257e-02" rms="2.7819764614105225e-01" purity="1.2525594234466553e-01" nType="-99"/>
        </Node>
      </Node>
    </BinaryTree>
    <BinaryTree type="DecisionTree" boostWeight="1.0000000000000000e+00" itree="29">
      <Node pos="s" depth="0" NCoef="0" IVar="9" Cut="3.1061461567878723e-01" cType="1" res="-2.0473647862672806e-02" rms="3.7661555409431458e-01" purity="3.3911553025245667e-01" nType="0">
        <Node pos="l" depth="1" NCoef="0" IVar="-1" Cut="0.0000000000000000e+00" cType="1" res="1.7243003472685814e-02" rms="2.9982525110244751e-01" purity="4.4017738103866577e-01" nType="-99"/>
        <Node pos="r" depth="1" NCoef="0" IVar="1" Cut="2.9504756927490234e+01" cType="1" res="6.8795740604400635e-02" rms="4.4670686125755310e-01" purity="2.0006678998470306e-01" nType="0">
          <Node pos="l" depth="2" NCoef="0" IVar="-1" Cut="0.0000000000000000e+00" cType="1" res="1.2049618363380432e-01" rms="2.7929273247718811e-01" purity="7.8899335861206055e-01" nType="-99"/>
          <Node pos="r" depth="2" NCoef="0" IVar="-1" Cut="0.0000000000000000e+00" cType="1" res="-9.9931024014949799e-02" rms="4.6783691644668579e-01" purity="5.1330201327800751e-02" nType="-99"/>
        </Node>
      </Node>
    </BinaryTree>
    <BinaryTree type="DecisionTree" boostWeight="1.0000000000000000e+00" itree="30">
      <Node pos="s" depth="0" NCoef="0" IVar="9" Cut="4.3044036626815796e-01" cType="0" res="-1.7922956496477127e-02" rms="3.7406834959983826e-01" purity="2.5572279095649719e-01" nType="0">
        <Node pos="l" depth="1" NCoef="0" IVar="-1" Cut="0.0000000000000000e+00" cType="1" res="6.1792489141225815e-02" rms="4.3791931867599487e-01" purity="6.5053719282150269e-01" nType="-99"/>
        <Node pos="r" depth="1" NCoef="0" IVar="5" Cut="5.1485151052474976e-01" cType="1" res="-4.7189097851514816e-02" rms="3.5359832644462585e-01" purity="1.8547138571739197e-01" nType="0">
          <Node pos="l" depth="2" NCoef="0" IVar="-1" Cut="0.0000000000000000e+00" cType="1" res="-7.1183042600750923e-03" rms="4.1159349679946899e-01" purity="2.6071715354919434e-01" nType="-99"/>
          <Node pos="r" depth="2" NCoef="0" IVar="-1" Cut="0.0000000000000000e+00" cType="1" res="-9.7372896969318390e-02" rms="1.5331263840198517e-01" purity="2.6205519214272499e-02" nType="-99"/>
        </Node>
      </Node>
    </BinaryTree>
    <BinaryTree type="DecisionTree" boostWeight="1.0000000000000000e+00" itree="31">
      <Node pos="s" depth="0" NCoef="0" IVar="9" Cut="4.2551219463348389e-01" cType="1" res="-1.8084486946463585e-02" rms="3.7393683195114136e-01" purity="4.0544143319129944e-01" nType="0">
        <Node pos="l" depth="1" NCoef="0" IVar="-1" Cut="0.0000000000000000e+00" cType="1" res="1.6511654481291771e-02" rms="3.5232999920845032e-01" purity="4.3835809826850891e-01" nType="-99"/>
        <Node pos="r" depth="1" NCoef="0" IVar="1" Cut="4.3762145996093750e+01" cType="0" res="1.4266863465309143e-01" rms="4.3903475999832153e-01" purity="2.3004995286464691e-01" nType="0">
          <Node pos="l" depth="2" NCoef="0" IVar="-1" Cut="0.0000000000000000e+00" cType="1" res="-4.1537936776876450e-02" rms="4.2991474270820618e-01" purity="2.4239379167556763e-01" nType="-99"/>
          <Node pos="r" depth="2" NCoef="0" IVar="-1" Cut="0.0000000000000000e+00" cType="1" res="-2.1115124225616455e-02" rms="4.1493597626686096e-01" purity="1.8271428346633911e-01" nType="-99"/>
        </Node>
      </Node>
    </BinaryTree>
    <BinaryTree type="DecisionTree" boostWeight="1.0000000000000000e+00" itree="32">
      <Node pos="s" depth="0" NCoef="0" IVar="9" Cut="4.2867961525917053e-01" cType="1" res="-1.7906097695231438e-02" rms="3.7409457564353943e-01" purity="3.3914744853973389e-01" nType="0">
        <Node pos="l" depth="1" NCoef="0" IVar="-1" Cut="0.0000000000000000e+00" cType="1" res="4.2387396097183228e-03" rms="3.5311961174011230e-01" purity="3.7863376736640930e-01" nType="-99"/>
        <Node pos="r" depth="1" NCoef="0" IVar="1" Cut="4.3762313842773438e+01" cType="1" res="1.4577685296535492e-01" rms="4.3820068240165710e-01" purity="1.2235609441995621e-01" nType="0">
          <Node pos="l" depth="2" NCoef="0" IVar="-1" Cut="0.0000000000000000e+00" cType="1" res="3.9826896041631699e-02" rms="4.1673937439918518e-01" purity="5.5529278516769409e-01" nType="-99"/>
          <Node pos="r" depth="2" NCoef="0" IVar="-1" Cut="0.0000000000000000e+00" cType="1" res="-1.0289013385772705e-01" rms="4.2821985483169556e-01" purity="1.0767851956188679e-02" nType="-99"/>
        </Node>
      </Node>
    </BinaryTree>
    <BinaryTree type="DecisionTree" boostWeight="1.0000000000000000e+00" itree="33">
      <Node pos="s" depth="0" NCoef="0" IVar="8" Cut="1.8041890859603882e-01" cType="1" res="-1.6105391085147858e-02" rms="3.7135595083236694e-01" purity="2.5595808029174805e-01" nType="0">
        <Node pos="l" depth="1" NCoef="0" IVar="-1" Cut="0.0000000000000000e+00" cType="1" res="2.3138020187616348e-02" rms="4.5169067382812500e-01" purity="4.4475516676902771e-01" nType="-99"/>
        <Node pos="r" depth="1" NCoef="0" IVar="1" Cut="2.9502637863159180e+01" cType="0" res="-7.6349429786205292e-02" rms="2.6538401842117310e-01" purity="8.5099793970584869e-02" nType="0">
          <Node pos="l" depth="2" NCoef="0" IVar="-1" Cut="0.0000000000000000e+00" cType="1" res="-2.3064956068992615e-02" rms="3.5470479726791382e-01" purity="1.6115584969520569e-01" nType="-99"/>
          <Node pos="r" depth="2" NCoef="0" IVar="-1" Cut="0.0000000000000000e+00" cType="1" res="-9.1371886432170868e-02" rms="1.6712310910224915e-01" purity="2.9643353074789047e-02" nType="-99"/>
        </Node>
      </Node>
    </BinaryTree>
    <BinaryTree type="DecisionTree" boostWeight="1.0000000000000000e+00" itree="34">
      <Node pos="s" depth="0" NCoef="0" IVar="8" Cut="1.8041890859603882e-01" cType="1" res="-1.6483314335346222e-02" rms="3.7124150991439819e-01" purity="4.0469789505004883e-01" nType="0">
        <Node pos="l" depth="1" NCoef="0" IVar="-1" Cut="0.0000000000000000e+00" cType="1" res="5.9349846094846725e-02" rms="4.5183351635932922e-01" purity="5.2006882429122925e-01" nType="-99"/>
        <Node pos="r" depth="1" NCoef="0" IVar="1" Cut="2.9503135681152344e+01" cType="0" res="-7.6933361589908600e-02" rms="2.6458260416984558e-01" purity="3.0011439323425293e-01" nType="0">
          <Node pos="l" depth="2" NCoef="0" IVar="-1" Cut="0.0000000000000000e+00" cType="1" res="7.1073576807975769e-02" rms="3.5335764288902283e-01" purity="5.8151632547378540e-01" nType="-99"/>
          <Node pos="r" depth="2" NCoef="0" IVar="-1" Cut="0.0000000000000000e+00" cType="1" res="-1.2279055267572403e-01" rms="1.6767796874046326e-01" purity="9.5513902604579926e-02" nType="-99"/>
        </Node>
      </Node>
    </BinaryTree>
    <BinaryTree type="DecisionTree" boostWeight="1.0000000000000000e+00" itree="35">
      <Node pos="s" depth="0" NCoef="0" IVar="8" Cut="1.9610750675201416e-01" cType="0" res="-1.6047526150941849e-02" rms="3.7168112397193909e-01" purity="3.3910769224166870e-01" nType="0">
        <Node pos="l" depth="1" NCoef="0" IVar="-1" Cut="0.0000000000000000e+00" cType="1" res="8.4987126290798187e-02" rms="2.4489299952983856e-01" purity="6.6319429874420166e-01" nType="-99"/>
        <Node pos="r" depth="1" NCoef="0" IVar="9" Cut="2.9036033153533936e-01" cType="0" res="4.3618697673082352e-02" rms="4.4755682349205017e-01" purity="5.0101093947887421e-02" nType="0">
          <Node pos="l" depth="2" NCoef="0" IVar="-1" Cut="0.0000000000000000e+00" cType="1" res="-9.4285406172275543e-02" rms="4.6414983272552490e-01" purity="6.0947559773921967e-02" nType="-99"/>
          <Node pos="r" depth="2" NCoef="0" IVar="-1" Cut="0.0000000000000000e+00" cType="1" res="-1.3865374028682709e-01" rms="3.9040315151214600e-01" purity="2.5409501045942307e-02" nType="-99"/>
        </Node>
      </Node>
    </BinaryTree>
    <BinaryTree type="DecisionTree" boostWeight="1.0000000000000000e+00" itree="36">
      <Node pos="s" depth="0" NCoef="0" IVar="9" Cut="2.9293808341026306e-01" cType="0" res="-1.2071653269231319e-02" rms="3.7082245945930481e-01" purity="2.5615432858467102e-01" nType="0">
        <Node pos="l" depth="1" NCoef="0" IVar="-1" Cut="0.0000000000000000e+00" cType="1" res="2.4316199123859406e-02" rms="4.3602150678634644e-01" purity="4.2605739831924438e-01" nType="-99"/>
        <Node pos="r" depth="1" NCoef="0" IVar="4" Cut="2.4752475321292877e-01" cType="0" res="-7.0975773036479950e-02" rms="2.8418448567390442e-01" purity="9.5962166786193848e-02" nType="0">
          <Node pos="l" depth="2" NCoef="0" IVar="-1" Cut="0.0000000000000000e+00" cType="1" res="-3.2565552741289139e-02" rms="3.5793274641036987e-01" purity="1.5473122894763947e-01" nType="-99"/>
          <Node pos="r" depth="2" NCoef="0" IVar="-1" Cut="0.0000000000000000e+00" cType="1" res="-9.7254902124404907e-02" rms="1.2151765078306198e-01" purity="1.5463883057236671e-02" nType="-99"/>
        </Node>
      </Node>
    </BinaryTree>
    <BinaryTree type="DecisionTree" boostWeight="1.0000000000000000e+00" itree="37">
      <Node pos="s" depth="0" NCoef="0" IVar="9" Cut="2.9683643579483032e-01" cType="1" res="-1.2421488761901855e-02" rms="3.7043967843055725e-01" purity="4.0522721409797668e-01" nType="0">
        <Node pos="l" depth="1" NCoef="0" IVar="-1" Cut="0.0000000000000000e+00" cType="1" res="1.5325239859521389e-02" rms="2.8682726621627808e-01" purity="4.4851237535476685e-01" nType="-99"/>
        <Node pos="r" depth="1" NCoef="0" IVar="1" Cut="2.9504690170288086e+01" cType="0" res="5.2277319133281708e-02" rms="4.3733361363410950e-01" purity="3.5644465684890747e-01" nType="0">
          <Node pos="l" depth="2" NCoef="0" IVar="-1" Cut="0.0000000000000000e+00" cType="1" res="1.3470801524817944e-02" rms="4.6414208412170410e-01" purity="4.1812857985496521e-01" nType="-99"/>
          <Node pos="r" depth="2" NCoef="0" IVar="-1" Cut="0.0000000000000000e+00" cType="1" res="-7.4034497141838074e-02" rms="2.6813608407974243e-01" purity="1.2624247372150421e-01" nType="-99"/>
        </Node>
      </Node>
    </BinaryTree>
    <BinaryTree type="DecisionTree" boostWeight="1.0000000000000000e+00" itree="38">
      <Node pos="s" depth="0" NCoef="0" IVar="9" Cut="2.9293808341026306e-01" cType="1" res="-1.2284494936466217e-02" rms="3.7075692415237427e-01" purity="3.3855903148651123e-01" nType="0">
        <Node pos="l" depth="1" NCoef="0" IVar="-1" Cut="0.0000000000000000e+00" cType="1" res="1.5078357420861721e-02" rms="2.8378921747207642e-01" purity="4.5719701051712036e-01" nType="-99"/>
        <Node pos="r" depth="1" NCoef="0" IVar="1" Cut="3.9009456634521484e+01" cType="1" res="4.9994222819805145e-02" rms="4.3603131175041199e-01" purity="2.1307685971260071e-01" nType="0">
          <Node pos="l" depth="2" NCoef="0" IVar="-1" Cut="0.0000000000000000e+00" cType="1" res="7.3700368404388428e-02" rms="3.1617796421051025e-01" purity="6.9028323888778687e-01" nType="-99"/>
          <Node pos="r" depth="2" NCoef="0" IVar="-1" Cut="0.0000000000000000e+00" cType="1" res="-1.0960476845502853e-01" rms="4.6706411242485046e-01" purity="1.9819149747490883e-02" nType="-99"/>
        </Node>
      </Node>
    </BinaryTree>
    <BinaryTree type="DecisionTree" boostWeight="1.0000000000000000e+00" itree="39">
      <Node pos="s" depth="0" NCoef="0" IVar="10" Cut="8.1188398599624634e-01" cType="0" res="-1.0841411538422108e-02" rms="3.6898398399353027e-01" purity="2.5587594509124756e-01" nType="0">
        <Node pos="l" depth="1" NCoef="0" IVar="-1" Cut="0.0000000000000000e+00" cType="1" res="6.4346812665462494e-02" rms="4.3203037977218628e-01" purity="7.0466989278793335e-01" nType="-99"/>
        <Node pos="r" depth="1" NCoef="0" IVar="1" Cut="2.9504419326782227e+01" cType="0" res="-3.0855927616357803e-02" rms="3.5540187358856201e-01" purity="2.0124688744544983e-01" nType="0">
          <Node pos="l" depth="2" NCoef="0" IVar="-1" Cut="0.0000000000000000e+00" cType="1" res="7.7886495273560286e-04" rms="4.1791030764579773e-01" purity="2.9212516546249390e-01" nType="-99"/>
          <Node pos="r" depth="2" NCoef="0" IVar="-1" Cut="0.0000000000000000e+00" cType="1" res="-8.2625284790992737e-02" rms="1.8387790024280548e-01" purity="3.7273745983839035e-02" nType="-99"/>
        </Node>
      </Node>
    </BinaryTree>
    <BinaryTree type="DecisionTree" boostWeight="1.0000000000000000e+00" itree="40">
      <Node pos="s" depth="0" NCoef="0" IVar="10" Cut="8.0198019742965698e-01" cType="1" res="-1.1039501987397671e-02" rms="3.6889460682868958e-01" purity="4.0533730387687683e-01" nType="0">
        <Node pos="l" depth="1" NCoef="0" IVar="-1" Cut="0.0000000000000000e+00" cType="1" res="1.1065118946135044e-02" rms="3.5350763797760010e-01" purity="4.1892394423484802e-01" nType="-99"/>
        <Node pos="r" depth="1" NCoef="0" IVar="6" Cut="4.3475246429443359e+01" cType="0" res="1.4419321715831757e-01" rms="4.3702346086502075e-01" purity="3.0479082465171814e-01" nType="0">
          <Node pos="l" depth="2" NCoef="0" IVar="-1" Cut="0.0000000000000000e+00" cType="1" res="1.9139122217893600e-02" rms="4.7102990746498108e-01" purity="4.3192949891090393e-01" nType="-99"/>
          <Node pos="r" depth="2" NCoef="0" IVar="-1" Cut="0.0000000000000000e+00" cType="1" res="-5.3489953279495239e-02" rms="4.0548658370971680e-01" purity="2.2473260760307312e-01" nType="-99"/>
        </Node>
      </Node>
    </BinaryTree>
    <BinaryTree type="DecisionTree" boostWeight="1.0000000000000000e+00" itree="41">
      <Node pos="s" depth="0" NCoef="0" IVar="10" Cut="8.0198299884796143e-01" cType="1" res="-1.0646044276654720e-02" rms="3.6917042732238770e-01" purity="3.3864778280258179e-01" nType="0">
        <Node pos="l" depth="1" NCoef="0" IVar="-1" Cut="0.0000000000000000e+00" cType="1" res="2.9939904343336821e-03" rms="3.5385566949844360e-01" purity="3.8407748937606812e-01" nType="-99"/>
        <Node pos="r" depth="1" NCoef="0" IVar="6" Cut="4.3831684112548828e+01" cType="1" res="1.4434120059013367e-01" rms="4.3664503097534180e-01" purity="3.6550513468682766e-03" nType="0">
          <Node pos="l" depth="2" NCoef="0" IVar="-1" Cut="0.0000000000000000e+00" cType="1" res="-1.0312508046627045e-01" rms="4.0499719977378845e-01" purity="5.7130255736410618e-03" nType="-99"/>
          <Node pos="r" depth="2" NCoef="0" IVar="-1" Cut="0.0000000000000000e+00" cType="1" res="-1.1360979825258255e-01" rms="4.7021594643592834e-01" purity="4.1080740629695356e-04" nType="-99"/>
        </Node>
      </Node>
    </BinaryTree>
    <BinaryTree type="DecisionTree" boostWeight="1.0000000000000000e+00" itree="42">
      <Node pos="s" depth="0" NCoef="0" IVar="9" Cut="4.5202702283859253e-01" cType="0" res="-1.0213227942585945e-02" rms="3.6722621321678162e-01" purity="2.5585800409317017e-01" nType="0">
        <Node pos="l" depth="1" NCoef="0" IVar="-1" Cut="0.0000000000000000e+00" cType="1" res="5.3665280342102051e-02" rms="4.2538636922836304e-01" purity="6.7344915866851807e-01" nType="-99"/>
        <Node pos="r" depth="1" NCoef="0" IVar="9" Cut="2.6773580908775330e-01" cType="0" res="-2.9387779533863068e-02" rms="3.5400080680847168e-01" purity="1.9602802395820618e-01" nType="0">
          <Node pos="l" depth="2" NCoef="0" IVar="-1" Cut="0.0000000000000000e+00" cType="1" res="2.8693920467048883e-03" rms="4.1716328263282776e-01" purity="3.0057755112648010e-01" nType="-99"/>
          <Node pos="r" depth="2" NCoef="0" IVar="-1" Cut="0.0000000000000000e+00" cType="1" res="-5.6809250265359879e-02" rms="2.5930193066596985e-01" purity="7.7607393264770508e-02" nType="-99"/>
        </Node>
      </Node>
    </BinaryTree>
    <BinaryTree type="DecisionTree" boostWeight="1.0000000000000000e+00" itree="43">
      <Node pos="s" depth="0" NCoef="0" IVar="9" Cut="3.7668788433074951e-01" cType="1" res="-9.7565604373812675e-03" rms="3.6696463823318481e-01" purity="4.0407347679138184e-01" nType="0">
        <Node pos="l" depth="1" NCoef="0" IVar="-1" Cut="0.0000000000000000e+00" cType="1" res="1.3187522999942303e-02" rms="3.3447936177253723e-01" purity="4.4694989919662476e-01" nType="-99"/>
        <Node pos="r" depth="1" NCoef="0" IVar="1" Cut="4.3761802673339844e+01" cType="0" res="8.1726029515266418e-02" rms="4.4172728061676025e-01" purity="2.6954245567321777e-01" nType="0">
          <Node pos="l" depth="2" NCoef="0" IVar="-1" Cut="0.0000000000000000e+00" cType="1" res="-2.2350955754518509e-02" rms="4.4833195209503174e-01" purity="2.9439094662666321e-01" nType="-99"/>
          <Node pos="r" depth="2" NCoef="0" IVar="-1" Cut="0.0000000000000000e+00" cType="1" res="-1.1947365477681160e-02" rms="3.8889947533607483e-01" purity="1.9063045084476471e-01" nType="-99"/>
        </Node>
      </Node>
    </BinaryTree>
    <BinaryTree type="DecisionTree" boostWeight="1.0000000000000000e+00" itree="44">
      <Node pos="s" depth="0" NCoef="0" IVar="9" Cut="4.4318872690200806e-01" cType="1" res="-9.8147243261337280e-03" rms="3.6730098724365234e-01" purity="3.3833220601081848e-01" nType="0">
        <Node pos="l" depth="1" NCoef="0" IVar="-1" Cut="0.0000000000000000e+00" cType="1" res="7.2637760695215547e-07" rms="3.5267841815948486e-01" purity="3.7303519248962402e-01" nType="-99"/>
        <Node pos="r" depth="1" NCoef="0" IVar="1" Cut="4.3762313842773438e+01" cType="1" res="1.1908933520317078e-01" rms="4.2752259969711304e-01" purity="1.1718741804361343e-01" nType="0">
          <Node pos="l" depth="2" NCoef="0" IVar="-1" Cut="0.0000000000000000e+00" cType="1" res="3.4503009170293808e-02" rms="4.1870257258415222e-01" purity="5.4835706949234009e-01" nType="-99"/>
          <Node pos="r" depth="2" NCoef="0" IVar="-1" Cut="0.0000000000000000e+00" cType="1" res="-9.3019373714923859e-02" rms="4.1888439655303955e-01" purity="1.1175892315804958e-02" nType="-99"/>
        </Node>
      </Node>
    </BinaryTree>
    <BinaryTree type="DecisionTree" boostWeight="1.0000000000000000e+00" itree="45">
      <Node pos="s" depth="0" NCoef="0" IVar="1" Cut="4.3761600494384766e+01" cType="0" res="-9.7147198393940926e-03" rms="3.6553239822387695e-01" purity="2.5560048222541809e-01" nType="0">
        <Node pos="l" depth="1" NCoef="0" IVar="-1" Cut="0.0000000000000000e+00" cType="1" res="1.5965143218636513e-02" rms="4.3538907170295715e-01" purity="4.0089240670204163e-01" nType="-99"/>
        <Node pos="r" depth="1" NCoef="0" IVar="5" Cut="5.1485151052474976e-01" cType="1" res="-6.2957450747489929e-02" rms="2.4012598395347595e-01" purity="7.1534551680088043e-02" nType="0">
          <Node pos="l" depth="2" NCoef="0" IVar="-1" Cut="0.0000000000000000e+00" cType="1" res="-2.1070582792162895e-02" rms="3.3661067485809326e-01" purity="1.4830258488655090e-01" nType="-99"/>
          <Node pos="r" depth="2" NCoef="0" IVar="-1" Cut="0.0000000000000000e+00" cType="1" res="-9.2142969369888306e-02" rms="1.4180885255336761e-01" purity="2.1451177075505257e-02" nType="-99"/>
        </Node>
      </Node>
    </BinaryTree>
    <BinaryTree type="DecisionTree" boostWeight="1.0000000000000000e+00" itree="46">
      <Node pos="s" depth="0" NCoef="0" IVar="1" Cut="4.3761798858642578e+01" cType="0" res="-9.5826052129268646e-03" rms="3.6595931649208069e-01" purity="4.0552404522895813e-01" nType="0">
        <Node pos="l" depth="1" NCoef="0" IVar="-1" Cut="0.0000000000000000e+00" cType="1" res="6.6679932177066803e-02" rms="4.3568700551986694e-01" purity="5.7868087291717529e-01" nType="-99"/>
        <Node pos="r" depth="1" NCoef="0" IVar="5" Cut="4.9504950642585754e-01" cType="1" res="-6.2850609421730042e-02" rms="2.4050731956958771e-01" purity="1.8554574251174927e-01" nType="0">
          <Node pos="l" depth="2" NCoef="0" IVar="-1" Cut="0.0000000000000000e+00" cType="1" res="7.7720051631331444e-03" rms="3.3757480978965759e-01" purity="3.7049296498298645e-01" nType="-99"/>
          <Node pos="r" depth="2" NCoef="0" IVar="-1" Cut="0.0000000000000000e+00" cType="1" res="-1.2868294119834900e-01" rms="1.4597062766551971e-01" purity="6.9046184420585632e-02" nType="-99"/>
        </Node>
      </Node>
    </BinaryTree>
    <BinaryTree type="DecisionTree" boostWeight="1.0000000000000000e+00" itree="47">
      <Node pos="s" depth="0" NCoef="0" IVar="1" Cut="4.3761680603027344e+01" cType="1" res="-8.9276153594255447e-03" rms="3.6615720391273499e-01" purity="3.3876490592956543e-01" nType="0">
        <Node pos="l" depth="1" NCoef="0" IVar="-1" Cut="0.0000000000000000e+00" cType="1" res="9.6952058374881744e-02" rms="2.4098932743072510e-01" purity="7.4230724573135376e-01" nType="-99"/>
        <Node pos="r" depth="1" NCoef="0" IVar="9" Cut="2.8167483210563660e-01" cType="1" res="3.3253096044063568e-02" rms="4.3587195873260498e-01" purity="2.0435146987438202e-02" nType="0">
          <Node pos="l" depth="2" NCoef="0" IVar="-1" Cut="0.0000000000000000e+00" cType="1" res="-1.3758723437786102e-01" rms="3.7051445245742798e-01" purity="3.2831877470016479e-02" nType="-99"/>
          <Node pos="r" depth="2" NCoef="0" IVar="-1" Cut="0.0000000000000000e+00" cType="1" res="-1.1267881095409393e-01" rms="4.6358323097229004e-01" purity="1.3443457894027233e-02" nType="-99"/>
        </Node>
      </Node>
    </BinaryTree>
    <BinaryTree type="DecisionTree" boostWeight="1.0000000000000000e+00" itree="48">
      <Node pos="s" depth="0" NCoef="0" IVar="9" Cut="2.9293808341026306e-01" cType="0" res="-5.0223683938384056e-03" rms="3.6563390493392944e-01" purity="2.5594204664230347e-01" nType="0">
        <Node pos="l" depth="1" NCoef="0" IVar="-1" Cut="0.0000000000000000e+00" cType="1" res="2.1148011088371277e-02" rms="4.3143948912620544e-01" purity="4.2606016993522644e-01" nType="-99"/>
        <Node pos="r" depth="1" NCoef="0" IVar="9" Cut="2.3780804872512817e-01" cType="0" res="-5.0052095204591751e-02" rms="2.8295594453811646e-01" purity="9.5574773848056793e-02" nType="0">
          <Node pos="l" depth="2" NCoef="0" IVar="-1" Cut="0.0000000000000000e+00" cType="1" res="-2.2154202684760094e-02" rms="3.3630815148353577e-01" purity="1.4024712145328522e-01" nType="-99"/>
          <Node pos="r" depth="2" NCoef="0" IVar="-1" Cut="0.0000000000000000e+00" cType="1" res="-6.4379476010799408e-02" rms="2.2416102886199951e-01" purity="5.6169975548982620e-02" nType="-99"/>
        </Node>
      </Node>
    </BinaryTree>
    <BinaryTree type="DecisionTree" boostWeight="1.0000000000000000e+00" itree="49">
      <Node pos="s" depth="0" NCoef="0" IVar="9" Cut="2.9293808341026306e-01" cType="1" res="-4.9743382260203362e-03" rms="3.6565524339675903e-01" purity="4.0481251478195190e-01" nType="0">
        <Node pos="l" depth="1" NCoef="0" IVar="-1" Cut="0.0000000000000000e+00" cType="1" res="1.1686565354466438e-02" rms="2.8309583663940430e-01" purity="4.4672635197639465e-01" nType="-99"/>
        <Node pos="r" depth="1" NCoef="0" IVar="1" Cut="2.9504756927490234e+01" cType="0" res="4.2706675827503204e-02" rms="4.3133395910263062e-01" purity="3.6039191484451294e-01" nType="0">
          <Node pos="l" depth="2" NCoef="0" IVar="-1" Cut="0.0000000000000000e+00" cType="1" res="1.0144170373678207e-02" rms="4.6170842647552490e-01" purity="4.2478072643280029e-01" nType="-99"/>
          <Node pos="r" depth="2" NCoef="0" IVar="-1" Cut="0.0000000000000000e+00" cType="1" res="-6.2169391661882401e-02" rms="2.6326179504394531e-01" purity="1.2412045896053314e-01" nType="-99"/>
        </Node>
      </Node>
    </BinaryTree>
    <BinaryTree type="DecisionTree" boostWeight="1.0000000000000000e+00" itree="50">
      <Node pos="s" depth="0" NCoef="0" IVar="9" Cut="2.9293808341026306e-01" cType="1" res="-4.8228180967271328e-03" rms="3.6561053991317749e-01" purity="3.3844006061553955e-01" nType="0">
        <Node pos="l" depth="1" NCoef="0" IVar="-1" Cut="0.0000000000000000e+00" cType="1" res="9.6290586516261101e-03" rms="2.8299868106842041e-01" purity="4.5676985383033752e-01" nType="-99"/>
        <Node pos="r" depth="1" NCoef="0" IVar="1" Cut="2.9504827499389648e+01" cType="1" res="4.3500285595655441e-02" rms="4.3139266967773438e-01" purity="2.1265147626399994e-01" nType="0">
          <Node pos="l" depth="2" NCoef="0" IVar="-1" Cut="0.0000000000000000e+00" cType="1" res="7.6360911130905151e-02" rms="2.6634001731872559e-01" purity="7.9372602701187134e-01" nType="-99"/>
          <Node pos="r" depth="2" NCoef="0" IVar="-1" Cut="0.0000000000000000e+00" cType="1" res="-8.5710979998111725e-02" rms="4.6138769388198853e-01" purity="5.4161362349987030e-02" nType="-99"/>
        </Node>
      </Node>
    </BinaryTree>
    <BinaryTree type="DecisionTree" boostWeight="1.0000000000000000e+00" itree="51">
      <Node pos="s" depth="0" NCoef="0" IVar="9" Cut="4.6549019217491150e-01" cType="0" res="-4.5469296164810658e-03" rms="3.6450949311256409e-01" purity="2.5586596131324768e-01" nType="0">
        <Node pos="l" depth="1" NCoef="0" IVar="-1" Cut="0.0000000000000000e+00" cType="1" res="5.2550829946994781e-02" rms="4.1740494966506958e-01" purity="6.8912112712860107e-01" nType="-99"/>
        <Node pos="r" depth="1" NCoef="0" IVar="5" Cut="5.5445545911788940e-01" cType="1" res="-1.9938202574849129e-02" rms="3.5435849428176880e-01" purity="2.0178790390491486e-01" nType="0">
          <Node pos="l" depth="2" NCoef="0" IVar="-1" Cut="0.0000000000000000e+00" cType="1" res="6.8506447132676840e-04" rms="4.0952599048614502e-01" purity="2.7651941776275635e-01" nType="-99"/>
          <Node pos="r" depth="2" NCoef="0" IVar="-1" Cut="0.0000000000000000e+00" cType="1" res="-8.3195872604846954e-02" rms="1.5236158668994904e-01" purity="2.6500891894102097e-02" nType="-99"/>
        </Node>
      </Node>
    </BinaryTree>
    <BinaryTree type="DecisionTree" boostWeight="1.0000000000000000e+00" itree="52">
      <Node pos="s" depth="0" NCoef="0" IVar="9" Cut="4.6383780241012573e-01" cType="1" res="-4.2003081180155277e-03" rms="3.6450612545013428e-01" purity="4.0489831566810608e-01" nType="0">
        <Node pos="l" depth="1" NCoef="0" IVar="-1" Cut="0.0000000000000000e+00" cType="1" res="1.0454987175762653e-02" rms="3.5411307215690613e-01" purity="4.3041974306106567e-01" nType="-99"/>
        <Node pos="r" depth="1" NCoef="0" IVar="1" Cut="4.8514656066894531e+01" cType="0" res="1.1692702025175095e-01" rms="4.1867801547050476e-01" purity="2.0343354344367981e-01" nType="0">
          <Node pos="l" depth="2" NCoef="0" IVar="-1" Cut="0.0000000000000000e+00" cType="1" res="-5.1831226795911789e-02" rms="4.0609839558601379e-01" purity="2.0722891390323639e-01" nType="-99"/>
          <Node pos="r" depth="2" NCoef="0" IVar="-1" Cut="0.0000000000000000e+00" cType="1" res="-1.0715622454881668e-02" rms="4.3102017045021057e-01" purity="1.8922258913516998e-01" nType="-99"/>
        </Node>
      </Node>
    </BinaryTree>
    <BinaryTree type="DecisionTree" boostWeight="1.0000000000000000e+00" itree="53">
      <Node pos="s" depth="0" NCoef="0" IVar="9" Cut="4.1989007592201233e-01" cType="1" res="-4.1581280529499054e-03" rms="3.6495190858840942e-01" purity="3.3848598599433899e-01" nType="0">
        <Node pos="l" depth="1" NCoef="0" IVar="-1" Cut="0.0000000000000000e+00" cType="1" res="-1.6667733434587717e-03" rms="3.4710079431533813e-01" purity="3.8067945837974548e-01" nType="-99"/>
        <Node pos="r" depth="1" NCoef="0" IVar="1" Cut="4.3762737274169922e+01" cType="1" res="9.0647898614406586e-02" rms="4.3133604526519775e-01" purity="1.2722150981426239e-01" nType="0">
          <Node pos="l" depth="2" NCoef="0" IVar="-1" Cut="0.0000000000000000e+00" cType="1" res="1.8091406673192978e-02" rms="4.0822541713714600e-01" purity="5.6302732229232788e-01" nType="-99"/>
          <Node pos="r" depth="2" NCoef="0" IVar="-1" Cut="0.0000000000000000e+00" cType="1" res="-8.6393840610980988e-02" rms="4.3034216761589050e-01" purity="1.0851744562387466e-02" nType="-99"/>
        </Node>
      </Node>
    </BinaryTree>
    <BinaryTree type="DecisionTree" boostWeight="1.0000000000000000e+00" itree="54">
      <Node pos="s" depth="0" NCoef="0" IVar="10" Cut="8.2178503274917603e-01" cType="0" res="-4.4359485618770123e-03" rms="3.6337313055992126e-01" purity="2.5572693347930908e-01" nType="0">
        <Node pos="l" depth="1" NCoef="0" IVar="-1" Cut="0.0000000000000000e+00" cType="1" res="4.9815755337476730e-02" rms="4.2467701435089111e-01" purity="7.1540588140487671e-01" nType="-99"/>
        <Node pos="r" depth="1" NCoef="0" IVar="1" Cut="2.9504684448242188e+01" cType="0" res="-1.7297782003879547e-02" rms="3.5367685556411743e-01" purity="2.0557141304016113e-01" nType="0">
          <Node pos="l" depth="2" NCoef="0" IVar="-1" Cut="0.0000000000000000e+00" cType="1" res="3.2755192369222641e-03" rms="4.1639837622642517e-01" purity="2.9736432433128357e-01" nType="-99"/>
          <Node pos="r" depth="2" NCoef="0" IVar="-1" Cut="0.0000000000000000e+00" cType="1" res="-6.9974511861801147e-02" rms="1.8406693637371063e-01" purity="3.7551179528236389e-02" nType="-99"/>
        </Node>
      </Node>
    </BinaryTree>
    <BinaryTree type="DecisionTree" boostWeight="1.0000000000000000e+00" itree="55">
      <Node pos="s" depth="0" NCoef="0" IVar="8" Cut="7.0598706603050232e-02" cType="0" res="-4.2918580584228039e-03" rms="3.6346176266670227e-01" purity="4.0497127175331116e-01" nType="0">
        <Node pos="l" depth="1" NCoef="0" IVar="-1" Cut="0.0000000000000000e+00" cType="1" res="7.7413693070411682e-03" rms="3.5500702261924744e-01" purity="4.1819611191749573e-01" nType="-99"/>
        <Node pos="r" depth="1" NCoef="0" IVar="6" Cut="4.1752475738525391e+01" cType="0" res="1.2062585353851318e-01" rms="4.2034643888473511e-01" purity="2.7058479189872742e-01" nType="0">
          <Node pos="l" depth="2" NCoef="0" IVar="-1" Cut="0.0000000000000000e+00" cType="1" res="3.3502229489386082e-03" rms="4.6154031157493591e-01" purity="3.8061714172363281e-01" nType="-99"/>
          <Node pos="r" depth="2" NCoef="0" IVar="-1" Cut="0.0000000000000000e+00" cType="1" res="-5.9471860527992249e-02" rms="3.7783381342887878e-01" purity="1.8558162450790405e-01" nType="-99"/>
        </Node>
      </Node>
    </BinaryTree>
    <BinaryTree type="DecisionTree" boostWeight="1.0000000000000000e+00" itree="56">
      <Node pos="s" depth="0" NCoef="0" IVar="10" Cut="8.5148513317108154e-01" cType="1" res="-4.3406561017036438e-03" rms="3.6340862512588501e-01" purity="3.3890202641487122e-01" nType="0">
        <Node pos="l" depth="1" NCoef="0" IVar="-1" Cut="0.0000000000000000e+00" cType="1" res="-1.3213228667154908e-03" rms="3.5780730843544006e-01" purity="3.6374863982200623e-01" nType="-99"/>
        <Node pos="r" depth="1" NCoef="0" IVar="6" Cut="4.2881187438964844e+01" cType="1" res="1.4007981121540070e-01" rms="4.0544065833091736e-01" purity="2.3862279485911131e-03" nType="0">
          <Node pos="l" depth="2" NCoef="0" IVar="-1" Cut="0.0000000000000000e+00" cType="1" res="-9.8889164626598358e-02" rms="3.7330871820449829e-01" purity="3.5214649979025126e-03" nType="-99"/>
          <Node pos="r" depth="2" NCoef="0" IVar="-1" Cut="0.0000000000000000e+00" cType="1" res="-1.0807398706674576e-01" rms="4.5540952682495117e-01" purity="1.2739664816763252e-04" nType="-99"/>
        </Node>
      </Node>
    </BinaryTree>
    <BinaryTree type="DecisionTree" boostWeight="1.0000000000000000e+00" itree="57">
      <Node pos="s" depth="0" NCoef="0" IVar="9" Cut="3.1652843952178955e-01" cType="0" res="-4.0555843152105808e-03" rms="3.6261060833930969e-01" purity="2.5609308481216431e-01" nType="0">
        <Node pos="l" depth="1" NCoef="0" IVar="-1" Cut="0.0000000000000000e+00" cType="1" res="1.9477978348731995e-02" rms="4.3473365902900696e-01" purity="4.7063386440277100e-01" nType="-99"/>
        <Node pos="r" depth="1" NCoef="0" IVar="9" Cut="2.4868433177471161e-01" cType="0" res="-3.3629678189754486e-02" rms="3.0150762200355530e-01" purity="1.1285310238599777e-01" nType="0">
          <Node pos="l" depth="2" NCoef="0" IVar="-1" Cut="0.0000000000000000e+00" cType="1" res="-8.6615988984704018e-03" rms="3.6056646704673767e-01" purity="1.6971205174922943e-01" nType="-99"/>
          <Node pos="r" depth="2" NCoef="0" IVar="-1" Cut="0.0000000000000000e+00" cType="1" res="-5.2459854632616043e-02" rms="2.3841100931167603e-01" purity="6.4373329281806946e-02" nType="-99"/>
        </Node>
      </Node>
    </BinaryTree>
    <BinaryTree type="DecisionTree" boostWeight="1.0000000000000000e+00" itree="58">
      <Node pos="s" depth="0" NCoef="0" IVar="9" Cut="2.8010964393615723e-01" cType="1" res="-4.1443263180553913e-03" rms="3.6235874891281128e-01" purity="4.0517762303352356e-01" nType="0">
        <Node pos="l" depth="1" NCoef="0" IVar="-1" Cut="0.0000000000000000e+00" cType="1" res="6.2128482386469841e-03" rms="2.7112981677055359e-01" purity="4.4105204939842224e-01" nType="-99"/>
        <Node pos="r" depth="1" NCoef="0" IVar="1" Cut="2.9504827499389648e+01" cType="0" res="2.9728984460234642e-02" rms="4.2280972003936768e-01" purity="3.7417793273925781e-01" nType="0">
          <Node pos="l" depth="2" NCoef="0" IVar="-1" Cut="0.0000000000000000e+00" cType="1" res="1.6446644440293312e-02" rms="4.5699205994606018e-01" purity="4.4563651084899902e-01" nType="-99"/>
          <Node pos="r" depth="2" NCoef="0" IVar="-1" Cut="0.0000000000000000e+00" cType="1" res="-6.3608951866626740e-02" rms="2.5454941391944885e-01" purity="1.2646172940731049e-01" nType="-99"/>
        </Node>
      </Node>
    </BinaryTree>
    <BinaryTree type="DecisionTree" boostWeight="1.0000000000000000e+00" itree="59">
      <Node pos="s" depth="0" NCoef="0" IVar="9" Cut="2.8409981727600098e-01" cType="1" res="-4.1917399503290653e-03" rms="3.6228641867637634e-01" purity="3.3865943551063538e-01" nType="0">
        <Node pos="l" depth="1" NCoef="0" IVar="-1" Cut="0.0000000000000000e+00" cType="1" res="1.1336043477058411e-02" rms="2.7436965703964233e-01" purity="4.6673548221588135e-01" nType="-99"/>
        <Node pos="r" depth="1" NCoef="0" IVar="1" Cut="2.9504690170288086e+01" cType="1" res="3.1182823702692986e-02" rms="4.2452400922775269e-01" purity="2.2063820064067841e-01" nType="0">
          <Node pos="l" depth="2" NCoef="0" IVar="-1" Cut="0.0000000000000000e+00" cType="1" res="7.2130762040615082e-02" rms="2.5793147087097168e-01" purity="7.9966342449188232e-01" nType="-99"/>
          <Node pos="r" depth="2" NCoef="0" IVar="-1" Cut="0.0000000000000000e+00" cType="1" res="-8.1322953104972839e-02" rms="4.5779240131378174e-01" purity="5.6584008038043976e-02" nType="-99"/>
        </Node>
      </Node>
    </BinaryTree>
    <BinaryTree type="DecisionTree" boostWeight="1.0000000000000000e+00" itree="60">
      <Node pos="s" depth="0" NCoef="0" IVar="1" Cut="4.8513996124267578e+01" cType="0" res="-3.5545111168175936e-03" rms="3.6173060536384583e-01" purity="2.5557613372802734e-01" nType="0">
        <Node pos="l" depth="1" NCoef="0" IVar="-1" Cut="0.0000000000000000e+00" cType="1" res="1.3697445392608643e-02" rms="4.3391972780227661e-01" purity="4.0740394592285156e-01" nType="-99"/>
        <Node pos="r" depth="1" NCoef="0" IVar="5" Cut="5.6435644626617432e-01" cType="1" res="-3.8967914879322052e-02" rms="2.5036147236824036e-01" purity="8.1590577960014343e-02" nType="0">
          <Node pos="l" depth="2" NCoef="0" IVar="-1" Cut="0.0000000000000000e+00" cType="1" res="-9.6477745100855827e-03" rms="3.3840274810791016e-01" purity="1.5583992004394531e-01" nType="-99"/>
          <Node pos="r" depth="2" NCoef="0" IVar="-1" Cut="0.0000000000000000e+00" cType="1" res="-8.3084724843502045e-02" rms="1.4346663653850555e-01" purity="2.2734049707651138e-02" nType="-99"/>
        </Node>
      </Node>
    </BinaryTree>
    <BinaryTree type="DecisionTree" boostWeight="1.0000000000000000e+00" itree="61">
      <Node pos="s" depth="0" NCoef="0" IVar="1" Cut="4.3761768341064453e+01" cType="0" res="-2.9519579838961363e-03" rms="3.6192891001701355e-01" purity="4.0437990427017212e-01" nType="0">
        <Node pos="l" depth="1" NCoef="0" IVar="-1" Cut="0.0000000000000000e+00" cType="1" res="5.2779722958803177e-02" rms="4.3267688155174255e-01" purity="5.7770985364913940e-01" nType="-99"/>
        <Node pos="r" depth="1" NCoef="0" IVar="4" Cut="3.5643565654754639e-01" cType="0" res="-4.1004050523042679e-02" rms="2.3893429338932037e-01" purity="1.8450289964675903e-01" nType="0">
          <Node pos="l" depth="2" NCoef="0" IVar="-1" Cut="0.0000000000000000e+00" cType="1" res="7.6059281826019287e-02" rms="3.4810656309127808e-01" purity="5.6153219938278198e-01" nType="-99"/>
          <Node pos="r" depth="2" NCoef="0" IVar="-1" Cut="0.0000000000000000e+00" cType="1" res="-1.1310647428035736e-01" rms="1.9475381076335907e-01" purity="7.5890354812145233e-02" nType="-99"/>
        </Node>
      </Node>
    </BinaryTree>
    <BinaryTree type="DecisionTree" boostWeight="1.0000000000000000e+00" itree="62">
      <Node pos="s" depth="0" NCoef="0" IVar="1" Cut="4.3761802673339844e+01" cType="1" res="-3.1471094116568565e-03" rms="3.6219558119773865e-01" purity="3.3820101618766785e-01" nType="0">
        <Node pos="l" depth="1" NCoef="0" IVar="-1" Cut="0.0000000000000000e+00" cType="1" res="7.7972911298274994e-02" rms="2.3956096172332764e-01" purity="7.4251013994216919e-01" nType="-99"/>
        <Node pos="r" depth="1" NCoef="0" IVar="9" Cut="3.3397698402404785e-01" cType="1" res="2.6360554620623589e-02" rms="4.3270981311798096e-01" purity="2.0269863307476044e-02" nType="0">
          <Node pos="l" depth="2" NCoef="0" IVar="-1" Cut="0.0000000000000000e+00" cType="1" res="-1.2474130839109421e-01" rms="4.0555557608604431e-01" purity="2.6978356763720512e-02" nType="-99"/>
          <Node pos="r" depth="2" NCoef="0" IVar="-1" Cut="0.0000000000000000e+00" cType="1" res="-9.1288447380065918e-02" rms="4.5977798104286194e-01" purity="1.1999625712633133e-02" nType="-99"/>
        </Node>
      </Node>
    </BinaryTree>
    <BinaryTree type="DecisionTree" boostWeight="1.0000000000000000e+00" itree="63">
      <Node pos="s" depth="0" NCoef="0" IVar="9" Cut="3.2829117774963379e-01" cType="0" res="4.1278087883256376e-04" rms="3.6199781298637390e-01" purity="2.5613382458686829e-01" nType="0">
        <Node pos="l" depth="1" NCoef="0" IVar="-1" Cut="0.0000000000000000e+00" cType="1" res="2.2253302857279778e-02" rms="4.3615856766700745e-01" purity="4.9332904815673828e-01" nType="-99"/>
        <Node pos="r" depth="1" NCoef="0" IVar="9" Cut="2.5609734654426575e-01" cType="0" res="-2.5828598067164421e-02" rms="3.0886533856391907e-01" purity="1.2089692801237106e-01" nType="0">
          <Node pos="l" depth="2" NCoef="0" IVar="-1" Cut="0.0000000000000000e+00" cType="1" res="-2.9892437160015106e-03" rms="3.7290841341018677e-01" purity="1.8701651692390442e-01" nType="-99"/>
          <Node pos="r" depth="2" NCoef="0" IVar="-1" Cut="0.0000000000000000e+00" cType="1" res="-4.4822301715612411e-02" rms="2.4619826674461365e-01" purity="6.9198511540889740e-02" nType="-99"/>
        </Node>
      </Node>
    </BinaryTree>
    <BinaryTree type="DecisionTree" boostWeight="1.0000000000000000e+00" itree="64">
      <Node pos="s" depth="0" NCoef="0" IVar="9" Cut="3.3405333757400513e-01" cType="1" res="2.2241125407163054e-04" rms="3.6203217506408691e-01" purity="4.0531003475189209e-01" nType="0">
        <Node pos="l" depth="1" NCoef="0" IVar="-1" Cut="0.0000000000000000e+00" cType="1" res="1.0030698962509632e-02" rms="3.1215053796768188e-01" purity="4.5255264639854431e-01" nType="-99"/>
        <Node pos="r" depth="1" NCoef="0" IVar="1" Cut="4.8514152526855469e+01" cType="0" res="4.7706734389066696e-02" rms="4.3727940320968628e-01" purity="3.1597423553466797e-01" nType="0">
          <Node pos="l" depth="2" NCoef="0" IVar="-1" Cut="0.0000000000000000e+00" cType="1" res="-1.1409350670874119e-02" rms="4.5933929085731506e-01" purity="3.5862064361572266e-01" nType="-99"/>
          <Node pos="r" depth="2" NCoef="0" IVar="-1" Cut="0.0000000000000000e+00" cType="1" res="-4.3577605538303033e-05" rms="3.7114587426185608e-01" purity="2.1665892004966736e-01" nType="-99"/>
        </Node>
      </Node>
    </BinaryTree>
    <BinaryTree type="DecisionTree" boostWeight="1.0000000000000000e+00" itree="65">
      <Node pos="s" depth="0" NCoef="0" IVar="9" Cut="3.4957370162010193e-01" cType="1" res="-2.5022035697475076e-04" rms="3.6169973015785217e-01" purity="3.3870008587837219e-01" nType="0">
        <Node pos="l" depth="1" NCoef="0" IVar="-1" Cut="0.0000000000000000e+00" cType="1" res="-3.8697160198353231e-04" rms="3.2043051719665527e-01" purity="4.1270843148231506e-01" nType="-99"/>
        <Node pos="r" depth="1" NCoef="0" IVar="1" Cut="5.8018852233886719e+01" cType="1" res="5.1346398890018463e-02" rms="4.3771004676818848e-01" purity="1.6890494525432587e-01" nType="0">
          <Node pos="l" depth="2" NCoef="0" IVar="-1" Cut="0.0000000000000000e+00" cType="1" res="7.4449093081057072e-03" rms="3.9587822556495667e-01" purity="5.0304639339447021e-01" nType="-99"/>
          <Node pos="r" depth="2" NCoef="0" IVar="-1" Cut="0.0000000000000000e+00" cType="1" res="-9.7578041255474091e-02" rms="4.5295900106430054e-01" purity="4.8886043950915337e-03" nType="-99"/>
        </Node>
      </Node>
    </BinaryTree>
    <BinaryTree type="DecisionTree" boostWeight="1.0000000000000000e+00" itree="66">
      <Node pos="s" depth="0" NCoef="0" IVar="10" Cut="8.6138910055160522e-01" cType="0" res="-5.6725206377450377e-05" rms="3.6112189292907715e-01" purity="2.5621518492698669e-01" nType="0">
        <Node pos="l" depth="1" NCoef="0" IVar="-1" Cut="0.0000000000000000e+00" cType="1" res="5.6380338966846466e-02" rms="3.9663672447204590e-01" purity="7.7346014976501465e-01" nType="-99"/>
        <Node pos="r" depth="1" NCoef="0" IVar="5" Cut="6.0396039485931396e-01" cType="1" res="-7.7687473967671394e-03" rms="3.5736858844757080e-01" purity="2.2372633218765259e-01" nType="0">
          <Node pos="l" depth="2" NCoef="0" IVar="-1" Cut="0.0000000000000000e+00" cType="1" res="5.0289593636989594e-03" rms="4.0704953670501709e-01" purity="2.9503774642944336e-01" nType="-99"/>
          <Node pos="r" depth="2" NCoef="0" IVar="-1" Cut="0.0000000000000000e+00" cType="1" res="-7.0193253457546234e-02" rms="1.6538824141025543e-01" purity="3.9958156645298004e-02" nType="-99"/>
        </Node>
      </Node>
    </BinaryTree>
    <BinaryTree type="DecisionTree" boostWeight="1.0000000000000000e+00" itree="67">
      <Node pos="s" depth="0" NCoef="0" IVar="10" Cut="8.6138612031936646e-01" cType="1" res="-1.2394721852615476e-04" rms="3.6150524020195007e-01" purity="4.0503445267677307e-01" nType="0">
        <Node pos="l" depth="1" NCoef="0" IVar="-1" Cut="0.0000000000000000e+00" cType="1" res="6.1613516882061958e-03" rms="3.5784399509429932e-01" purity="4.1630637645721436e-01" nType="-99"/>
        <Node pos="r" depth="1" NCoef="0" IVar="2" Cut="-9.7661042213439941e-01" cType="0" res="1.2333579361438751e-01" rms="3.9595311880111694e-01" purity="2.2406318783760071e-01" nType="0">
          <Node pos="l" depth="2" NCoef="0" IVar="-1" Cut="0.0000000000000000e+00" cType="1" res="-3.1476885080337524e-02" rms="4.1267973184585571e-01" purity="2.5503247976303101e-01" nType="-99"/>
          <Node pos="r" depth="2" NCoef="0" IVar="-1" Cut="0.0000000000000000e+00" cType="1" res="-8.6434766650199890e-02" rms="3.1945794820785522e-01" purity="1.1750387400388718e-01" nType="-99"/>
        </Node>
      </Node>
    </BinaryTree>
    <BinaryTree type="DecisionTree" boostWeight="1.0000000000000000e+00" itree="68">
      <Node pos="s" depth="0" NCoef="0" IVar="9" Cut="4.1329461336135864e-01" cType="1" res="-3.6166061181575060e-04" rms="3.6116281151771545e-01" purity="3.3854687213897705e-01" nType="0">
        <Node pos="l" depth="1" NCoef="0" IVar="-1" Cut="0.0000000000000000e+00" cType="1" res="-2.5657943915575743e-03" rms="3.4371426701545715e-01" purity="3.8336545228958130e-01" nType="-99"/>
        <Node pos="r" depth="1" NCoef="0" IVar="1" Cut="5.3267002105712891e+01" cType="1" res="6.5905839204788208e-02" rms="4.2751333117485046e-01" purity="1.2844036519527435e-01" nType="0">
          <Node pos="l" depth="2" NCoef="0" IVar="-1" Cut="0.0000000000000000e+00" cType="1" res="3.9696977473795414e-03" rms="4.1886359453201294e-01" purity="4.7924041748046875e-01" nType="-99"/>
          <Node pos="r" depth="2" NCoef="0" IVar="-1" Cut="0.0000000000000000e+00" cType="1" res="-8.7243609130382538e-02" rms="4.2616531252861023e-01" purity="6.0416855849325657e-03" nType="-99"/>
        </Node>
      </Node>
    </BinaryTree>
    <BinaryTree type="DecisionTree" boostWeight="1.0000000000000000e+00" itree="69">
      <Node pos="s" depth="0" NCoef="0" IVar="9" Cut="4.7854182124137878e-01" cType="0" res="-7.5085560092702508e-04" rms="3.6031776666641235e-01" purity="2.5576844811439514e-01" nType="0">
        <Node pos="l" depth="1" NCoef="0" IVar="-1" Cut="0.0000000000000000e+00" cType="1" res="4.1014593094587326e-02" rms="4.0812167525291443e-01" purity="6.9976294040679932e-01" nType="-99"/>
        <Node pos="r" depth="1" NCoef="0" IVar="8" Cut="2.4439702928066254e-01" cType="1" res="-1.0278215631842613e-02" rms="3.5342177748680115e-01" purity="2.0745922625064850e-01" nType="0">
          <Node pos="l" depth="2" NCoef="0" IVar="-1" Cut="0.0000000000000000e+00" cType="1" res="3.5731298848986626e-03" rms="4.1610464453697205e-01" purity="2.9690963029861450e-01" nType="-99"/>
          <Node pos="r" depth="2" NCoef="0" IVar="-1" Cut="0.0000000000000000e+00" cType="1" res="-6.4005464315414429e-02" rms="1.6806156933307648e-01" purity="3.1203465536236763e-02" nType="-99"/>
        </Node>
      </Node>
    </BinaryTree>
    <BinaryTree type="DecisionTree" boostWeight="1.0000000000000000e+00" itree="70">
      <Node pos="s" depth="0" NCoef="0" IVar="9" Cut="4.9520507454872131e-01" cType="1" res="-8.0415792763233185e-04" rms="3.6069220304489136e-01" purity="4.0558141469955444e-01" nType="0">
        <Node pos="l" depth="1" NCoef="0" IVar="-1" Cut="0.0000000000000000e+00" cType="1" res="7.0148804225027561e-03" rms="3.5516676306724548e-01" purity="4.2601996660232544e-01" nType="-99"/>
        <Node pos="r" depth="1" NCoef="0" IVar="1" Cut="4.3763217926025391e+01" cType="0" res="9.3548588454723358e-02" rms="4.0359640121459961e-01" purity="1.8586382269859314e-01" nType="0">
          <Node pos="l" depth="2" NCoef="0" IVar="-1" Cut="0.0000000000000000e+00" cType="1" res="-5.0356816500425339e-02" rms="3.9313510060310364e-01" purity="1.8821793794631958e-01" nType="-99"/>
          <Node pos="r" depth="2" NCoef="0" IVar="-1" Cut="0.0000000000000000e+00" cType="1" res="9.7534926608204842e-03" rms="4.2317551374435425e-01" purity="1.7457154393196106e-01" nType="-99"/>
        </Node>
      </Node>
    </BinaryTree>
    <BinaryTree type="DecisionTree" boostWeight="1.0000000000000000e+00" itree="71">
      <Node pos="s" depth="0" NCoef="0" IVar="9" Cut="2.7925735712051392e-01" cType="1" res="-4.5063236029818654e-04" rms="3.6067688465118408e-01" purity="3.3862042427062988e-01" nType="0">
        <Node pos="l" depth="1" NCoef="0" IVar="-1" Cut="0.0000000000000000e+00" cType="1" res="9.5785707235336304e-03" rms="2.7005526423454285e-01" purity="4.7368690371513367e-01" nType="-99"/>
        <Node pos="r" depth="1" NCoef="0" IVar="1" Cut="2.4752479553222656e+01" cType="1" res="2.6008727028965950e-02" rms="4.2090135812759399e-01" purity="2.2379158437252045e-01" nType="0">
          <Node pos="l" depth="2" NCoef="0" IVar="-1" Cut="0.0000000000000000e+00" cType="1" res="7.9333454370498657e-02" rms="2.1708089113235474e-01" purity="8.5598260164260864e-01" nType="-99"/>
          <Node pos="r" depth="2" NCoef="0" IVar="-1" Cut="0.0000000000000000e+00" cType="1" res="-6.1335906386375427e-02" rms="4.4617462158203125e-01" purity="1.0918861627578735e-01" nType="-99"/>
        </Node>
      </Node>
    </BinaryTree>
    <BinaryTree type="DecisionTree" boostWeight="1.0000000000000000e+00" itree="72">
      <Node pos="s" depth="0" NCoef="0" IVar="9" Cut="2.8167483210563660e-01" cType="0" res="-1.1844848049804568e-03" rms="3.5992789268493652e-01" purity="2.5615614652633667e-01" nType="0">
        <Node pos="l" depth="1" NCoef="0" IVar="-1" Cut="0.0000000000000000e+00" cType="1" res="1.2180223129689693e-02" rms="4.2096319794654846e-01" purity="4.0502849221229553e-01" nType="-99"/>
        <Node pos="r" depth="1" NCoef="0" IVar="11" Cut="5.0335639715194702e-01" cType="0" res="-2.8516184538602829e-02" rms="2.7240473031997681e-01" purity="8.7684713304042816e-02" nType="0">
          <Node pos="l" depth="2" NCoef="0" IVar="-1" Cut="0.0000000000000000e+00" cType="1" res="3.0408404767513275e-02" rms="3.9189216494560242e-01" purity="1.9657450914382935e-01" nType="-99"/>
          <Node pos="r" depth="2" NCoef="0" IVar="-1" Cut="0.0000000000000000e+00" cType="1" res="-3.2347761094570160e-02" rms="2.6659119129180908e-01" purity="8.3632349967956543e-02" nType="-99"/>
        </Node>
      </Node>
    </BinaryTree>
    <BinaryTree type="DecisionTree" boostWeight="1.0000000000000000e+00" itree="73">
      <Node pos="s" depth="0" NCoef="0" IVar="9" Cut="2.8167483210563660e-01" cType="1" res="-1.3113595778122544e-03" rms="3.5990315675735474e-01" purity="4.0499606728553772e-01" nType="0">
        <Node pos="l" depth="1" NCoef="0" IVar="-1" Cut="0.0000000000000000e+00" cType="1" res="4.6992585994303226e-03" rms="2.7292370796203613e-01" purity="4.4181290268898010e-01" nType="-99"/>
        <Node pos="r" depth="1" NCoef="0" IVar="1" Cut="2.9504827499389648e+01" cType="0" res="2.2497015073895454e-02" rms="4.2073959112167358e-01" purity="3.7242251634597778e-01" nType="0">
          <Node pos="l" depth="2" NCoef="0" IVar="-1" Cut="0.0000000000000000e+00" cType="1" res="9.7488993778824806e-03" rms="4.5590582489967346e-01" purity="4.4344294071197510e-01" nType="-99"/>
          <Node pos="r" depth="2" NCoef="0" IVar="-1" Cut="0.0000000000000000e+00" cType="1" res="-4.4232010841369629e-02" rms="2.5446155667304993e-01" purity="1.2558127939701080e-01" nType="-99"/>
        </Node>
      </Node>
    </BinaryTree>
    <BinaryTree type="DecisionTree" boostWeight="1.0000000000000000e+00" itree="74">
      <Node pos="s" depth="0" NCoef="0" IVar="9" Cut="2.8409981727600098e-01" cType="1" res="-1.2414804659783840e-03" rms="3.5990700125694275e-01" purity="3.3848768472671509e-01" nType="0">
        <Node pos="l" depth="1" NCoef="0" IVar="-1" Cut="0.0000000000000000e+00" cType="1" res="7.3441355489194393e-03" rms="2.7460101246833801e-01" purity="4.6666768193244934e-01" nType="-99"/>
        <Node pos="r" depth="1" NCoef="0" IVar="1" Cut="2.9504787445068359e+01" cType="1" res="2.3449933156371117e-02" rms="4.2205703258514404e-01" purity="2.2038844227790833e-01" nType="0">
          <Node pos="l" depth="2" NCoef="0" IVar="-1" Cut="0.0000000000000000e+00" cType="1" res="4.9332901835441589e-02" rms="2.5771072506904602e-01" purity="7.9807960987091064e-01" nType="-99"/>
          <Node pos="r" depth="2" NCoef="0" IVar="-1" Cut="0.0000000000000000e+00" cType="1" res="-6.8713977932929993e-02" rms="4.5655396580696106e-01" purity="5.6149750947952271e-02" nType="-99"/>
        </Node>
      </Node>
    </BinaryTree>
    <BinaryTree type="DecisionTree" boostWeight="1.0000000000000000e+00" itree="75">
      <Node pos="s" depth="0" NCoef="0" IVar="1" Cut="3.4257072448730469e+01" cType="0" res="-6.6873087780550122e-04" rms="3.5959941148757935e-01" purity="2.5584670901298523e-01" nType="0">
        <Node pos="l" depth="1" NCoef="0" IVar="-1" Cut="0.0000000000000000e+00" cType="1" res="9.6393916755914688e-03" rms="4.2475509643554688e-01" purity="3.7930244207382202e-01" nType="-99"/>
        <Node pos="r" depth="1" NCoef="0" IVar="4" Cut="3.6633664369583130e-01" cType="0" res="-3.2265555113554001e-02" rms="2.0500086247920990e-01" purity="4.8837363719940186e-02" nType="0">
          <Node pos="l" depth="2" NCoef="0" IVar="-1" Cut="0.0000000000000000e+00" cType="1" res="1.9076820462942123e-02" rms="3.2553336024284363e-01" purity="1.3022375106811523e-01" nType="-99"/>
          <Node pos="r" depth="2" NCoef="0" IVar="-1" Cut="0.0000000000000000e+00" cType="1" res="-6.3940688967704773e-02" rms="1.6952092945575714e-01" purity="3.2693337649106979e-02" nType="-99"/>
        </Node>
      </Node>
    </BinaryTree>
    <BinaryTree type="DecisionTree" boostWeight="1.0000000000000000e+00" itree="76">
      <Node pos="s" depth="0" NCoef="0" IVar="1" Cut="3.4257003784179688e+01" cType="0" res="-6.8798608845099807e-04" rms="3.6002549529075623e-01" purity="4.0484762191772461e-01" nType="0">
        <Node pos="l" depth="1" NCoef="0" IVar="-1" Cut="0.0000000000000000e+00" cType="1" res="4.2360614985227585e-02" rms="4.2509883642196655e-01" purity="5.6704503297805786e-01" nType="-99"/>
        <Node pos="r" depth="1" NCoef="0" IVar="4" Cut="3.6633664369583130e-01" cType="0" res="-3.2168399542570114e-02" rms="2.0547807216644287e-01" purity="1.3240744173526764e-01" nType="0">
          <Node pos="l" depth="2" NCoef="0" IVar="-1" Cut="0.0000000000000000e+00" cType="1" res="5.7660527527332306e-02" rms="3.2493537664413452e-01" purity="4.9493843317031860e-01" nType="-99"/>
          <Node pos="r" depth="2" NCoef="0" IVar="-1" Cut="0.0000000000000000e+00" cType="1" res="-1.0989161580801010e-01" rms="1.7073507606983185e-01" purity="6.0944691300392151e-02" nType="-99"/>
        </Node>
      </Node>
    </BinaryTree>
    <BinaryTree type="DecisionTree" boostWeight="1.0000000000000000e+00" itree="77">
      <Node pos="s" depth="0" NCoef="0" IVar="5" Cut="5.3465348482131958e-01" cType="0" res="-7.0929538924247026e-04" rms="3.5986644029617310e-01" purity="3.3881008625030518e-01" nType="0">
        <Node pos="l" depth="1" NCoef="0" IVar="-1" Cut="0.0000000000000000e+00" cType="1" res="1.1841572076082230e-01" rms="1.7544813454151154e-01" purity="8.6254084110260010e-01" nType="-99"/>
        <Node pos="r" depth="1" NCoef="0" IVar="2" Cut="1.1618114709854126e+00" cType="0" res="1.4634908176958561e-02" rms="4.0996864438056946e-01" purity="1.2981042265892029e-01" nType="0">
          <Node pos="l" depth="2" NCoef="0" IVar="-1" Cut="0.0000000000000000e+00" cType="1" res="-4.6664912253618240e-02" rms="4.0762105584144592e-01" purity="2.1270270645618439e-01" nType="-99"/>
          <Node pos="r" depth="2" NCoef="0" IVar="-1" Cut="0.0000000000000000e+00" cType="1" res="-8.8988743722438812e-02" rms="4.0962713956832886e-01" purity="1.0125728696584702e-01" nType="-99"/>
        </Node>
      </Node>
    </BinaryTree>
    <BinaryTree type="DecisionTree" boostWeight="1.0000000000000000e+00" itree="78">
      <Node pos="s" depth="0" NCoef="0" IVar="8" Cut="5.8832254260778427e-02" cType="1" res="2.2140033543109894e-03" rms="3.5963782668113708e-01" purity="2.5602427124977112e-01" nType="0">
        <Node pos="l" depth="1" NCoef="0" IVar="-1" Cut="0.0000000000000000e+00" cType="1" res="4.9293845891952515e-02" rms="3.9246484637260437e-01" purity="7.8328067064285278e-01" nType="-99"/>
        <Node pos="r" depth="1" NCoef="0" IVar="1" Cut="2.9504547119140625e+01" cType="0" res="-3.7044361233711243e-03" rms="3.5672953724861145e-01" purity="2.2498771548271179e-01" nType="0">
          <Node pos="l" depth="2" NCoef="0" IVar="-1" Cut="0.0000000000000000e+00" cType="1" res="6.2917969189584255e-03" rms="4.1766902804374695e-01" purity="3.2052111625671387e-01" nType="-99"/>
          <Node pos="r" depth="2" NCoef="0" IVar="-1" Cut="0.0000000000000000e+00" cType="1" res="-5.2529599517583847e-02" rms="1.8224786221981049e-01" purity="3.7251837551593781e-02" nType="-99"/>
        </Node>
      </Node>
    </BinaryTree>
    <BinaryTree type="DecisionTree" boostWeight="1.0000000000000000e+00" itree="79">
      <Node pos="s" depth="0" NCoef="0" IVar="9" Cut="2.9683643579483032e-01" cType="1" res="2.0608506165444851e-03" rms="3.5949152708053589e-01" purity="4.0513527393341064e-01" nType="0">
        <Node pos="l" depth="1" NCoef="0" IVar="-1" Cut="0.0000000000000000e+00" cType="1" res="8.1568071618676186e-03" rms="2.8518944978713989e-01" purity="4.4916030764579773e-01" nType="-99"/>
        <Node pos="r" depth="1" NCoef="0" IVar="1" Cut="4.3761852264404297e+01" cType="0" res="2.8273388743400574e-02" rms="4.2651575803756714e-01" purity="3.5552474856376648e-01" nType="0">
          <Node pos="l" depth="2" NCoef="0" IVar="-1" Cut="0.0000000000000000e+00" cType="1" res="-1.3765587937086821e-03" rms="4.6203947067260742e-01" purity="4.2358896136283875e-01" nType="-99"/>
          <Node pos="r" depth="2" NCoef="0" IVar="-1" Cut="0.0000000000000000e+00" cType="1" res="-1.0336386039853096e-02" rms="3.2974618673324585e-01" purity="2.0622649788856506e-01" nType="-99"/>
        </Node>
      </Node>
    </BinaryTree>
    <BinaryTree type="DecisionTree" boostWeight="1.0000000000000000e+00" itree="80">
      <Node pos="s" depth="0" NCoef="0" IVar="8" Cut="5.7757221162319183e-02" cType="0" res="1.7401210498064756e-03" rms="3.5961952805519104e-01" purity="3.3927160501480103e-01" nType="0">
        <Node pos="l" depth="1" NCoef="0" IVar="-1" Cut="0.0000000000000000e+00" cType="1" res="-4.4458056800067425e-03" rms="3.5695457458496094e-01" purity="3.5810014605522156e-01" nType="-99"/>
        <Node pos="r" depth="1" NCoef="0" IVar="2" Cut="1.0126353502273560e+00" cType="0" res="1.0408914834260941e-01" rms="3.9056992530822754e-01" purity="1.3036363525316119e-03" nType="0">
          <Node pos="l" depth="2" NCoef="0" IVar="-1" Cut="0.0000000000000000e+00" cType="1" res="-9.2202357947826385e-02" rms="2.9348313808441162e-01" purity="2.3727919906377792e-03" nType="-99"/>
          <Node pos="r" depth="2" NCoef="0" IVar="-1" Cut="0.0000000000000000e+00" cType="1" res="-9.9196113646030426e-02" rms="4.0899479389190674e-01" purity="1.0187234729528427e-03" nType="-99"/>
        </Node>
      </Node>
    </BinaryTree>
    <BinaryTree type="DecisionTree" boostWeight="1.0000000000000000e+00" itree="81">
      <Node pos="s" depth="0" NCoef="0" IVar="9" Cut="4.1667392849922180e-01" cType="0" res="1.6305914614349604e-03" rms="3.5917967557907104e-01" purity="2.5606292486190796e-01" nType="0">
        <Node pos="l" depth="1" NCoef="0" IVar="-1" Cut="0.0000000000000000e+00" cType="1" res="2.5512522086501122e-02" rms="4.2363339662551880e-01" purity="6.3648432493209839e-01" nType="-99"/>
        <Node pos="r" depth="1" NCoef="0" IVar="8" Cut="2.5286594033241272e-01" cType="1" res="-8.9598782360553741e-03" rms="3.4344729781150818e-01" purity="1.7766755819320679e-01" nType="0">
          <Node pos="l" depth="2" NCoef="0" IVar="-1" Cut="0.0000000000000000e+00" cType="1" res="1.7977475654333830e-03" rms="4.0378114581108093e-01" purity="2.5094714760780334e-01" nType="-99"/>
          <Node pos="r" depth="2" NCoef="0" IVar="-1" Cut="0.0000000000000000e+00" cType="1" res="-6.1263084411621094e-02" rms="1.5425282716751099e-01" purity="2.6083471253514290e-02" nType="-99"/>
        </Node>
      </Node>
    </BinaryTree>
    <BinaryTree type="DecisionTree" boostWeight="1.0000000000000000e+00" itree="82">
      <Node pos="s" depth="0" NCoef="0" IVar="9" Cut="3.8132080435752869e-01" cType="1" res="1.3437810121104121e-03" rms="3.5918658971786499e-01" purity="4.0518063306808472e-01" nType="0">
        <Node pos="l" depth="1" NCoef="0" IVar="-1" Cut="0.0000000000000000e+00" cType="1" res="7.1979626081883907e-03" rms="3.3330625295639038e-01" purity="4.4709074497222900e-01" nType="-99"/>
        <Node pos="r" depth="1" NCoef="0" IVar="1" Cut="5.3266502380371094e+01" cType="0" res="4.3630491942167282e-02" rms="4.3134295940399170e-01" purity="2.6634573936462402e-01" nType="0">
          <Node pos="l" depth="2" NCoef="0" IVar="-1" Cut="0.0000000000000000e+00" cType="1" res="-2.1030481904745102e-02" rms="4.3948838114738464e-01" purity="2.8477600216865540e-01" nType="-99"/>
          <Node pos="r" depth="2" NCoef="0" IVar="-1" Cut="0.0000000000000000e+00" cType="1" res="1.2104122899472713e-02" rms="4.0265074372291565e-01" purity="2.1951656043529510e-01" nType="-99"/>
        </Node>
      </Node>
    </BinaryTree>
    <BinaryTree type="DecisionTree" boostWeight="1.0000000000000000e+00" itree="83">
      <Node pos="s" depth="0" NCoef="0" IVar="9" Cut="4.1110053658485413e-01" cType="1" res="1.4464095002040267e-03" rms="3.5916060209274292e-01" purity="3.3916452527046204e-01" nType="0">
        <Node pos="l" depth="1" NCoef="0" IVar="-1" Cut="0.0000000000000000e+00" cType="1" res="-3.4022170584648848e-03" rms="3.4196233749389648e-01" purity="3.8492530584335327e-01" nType="-99"/>
        <Node pos="r" depth="1" NCoef="0" IVar="1" Cut="4.3762416839599609e+01" cType="1" res="5.1296245306730270e-02" rms="4.2558470368385315e-01" purity="1.2985284626483917e-01" nType="0">
          <Node pos="l" depth="2" NCoef="0" IVar="-1" Cut="0.0000000000000000e+00" cType="1" res="-2.3778316099196672e-03" rms="3.9933294057846069e-01" purity="5.6388670206069946e-01" nType="-99"/>
          <Node pos="r" depth="2" NCoef="0" IVar="-1" Cut="0.0000000000000000e+00" cType="1" res="-6.3106358051300049e-02" rms="4.2994695901870728e-01" purity="1.0846055112779140e-02" nType="-99"/>
        </Node>
      </Node>
    </BinaryTree>
    <BinaryTree type="DecisionTree" boostWeight="1.0000000000000000e+00" itree="84">
      <Node pos="s" depth="0" NCoef="0" IVar="9" Cut="2.7284771203994751e-01" cType="0" res="1.6051025595515966e-03" rms="3.5929152369499207e-01" purity="2.5688230991363525e-01" nType="0">
        <Node pos="l" depth="1" NCoef="0" IVar="-1" Cut="0.0000000000000000e+00" cType="1" res="1.1039198376238346e-02" rms="4.1623046994209290e-01" purity="3.9012035727500916e-01" nType="-99"/>
        <Node pos="r" depth="1" NCoef="0" IVar="4" Cut="7.6237624883651733e-01" cType="0" res="-2.2697340697050095e-02" rms="2.6472100615501404e-01" purity="8.1958666443824768e-02" nType="0">
          <Node pos="l" depth="2" NCoef="0" IVar="-1" Cut="0.0000000000000000e+00" cType="1" res="-3.0529469251632690e-02" rms="3.5115718841552734e-01" purity="1.4419691264629364e-01" nType="-99"/>
          <Node pos="r" depth="2" NCoef="0" IVar="-1" Cut="0.0000000000000000e+00" cType="1" res="-2.2637205198407173e-02" rms="2.3362436890602112e-01" purity="6.4084239304065704e-02" nType="-99"/>
        </Node>
      </Node>
    </BinaryTree>
    <BinaryTree type="DecisionTree" boostWeight="1.0000000000000000e+00" itree="85">
      <Node pos="s" depth="0" NCoef="0" IVar="9" Cut="2.7925735712051392e-01" cType="1" res="9.8578061442822218e-04" rms="3.5910707712173462e-01" purity="4.0509018301963806e-01" nType="0">
        <Node pos="l" depth="1" NCoef="0" IVar="-1" Cut="0.0000000000000000e+00" cType="1" res="4.5049283653497696e-03" rms="2.7071979641914368e-01" purity="4.4065669178962708e-01" nType="-99"/>
